0.4065255313262876 -0.025163292357843158 -0.015542817729255599 0.11954737098571713 0.25098600633432483 -0.000674766955540271 0.11391719311294954 -0.12107840438215975 -0.2846335641921088 0.1632608623059567 0.13405602262384078 0.21097610377484846 0.023387352684181607 -0.12190260387184862 0.08024616687237375 -0.17630485613061997 -0.06903188766387905 0.0571602385904984 0.11242829185421063 -0.11956826557413654 0.0935211236737798 0.08132163434221992 -0.1726062735463392 0.03639923982676943 0.4108636086149524 -0.1612013914963593 0.2435718248399873 0.247268532626696 0.28234303770121916 -0.11681112080195882 -0.14859359917202303 -0.33265564036476786 0.301076714114056 -0.12805979276808316 -0.08701083747396147 -0.061201300400469526 -0.09670240597148484 0.0935080167825914 -0.008882224101534537 -0.11671325780523749 -0.06755611194102229 0.03360707537620383 0.28846784268841036 -0.022747130329527437 0.27097894976961745 -0.19210189746460835 0.022985302002788265 -0.01718141757648192 0.014826446028879316 0.2797395352564507 -0.44506742321460946 0.28803558417887576 0.029962668912405607 0.021751121689495913 0.22576307593568762 -0.08634468476477632 0.18256830246300232 0.1432498049179883 -0.29035136962259234 0.11134268086772005 -0.04245971590089334 0.1455001711442097 -0.22140241979404307 0.028547496834049158 -0.06719767802251948 -0.25227632253537474 0.10781846864842697 0.028829501609794674 -0.4761040315102197 0.03503683218503548 -0.3794023033930802 0.23544649856043676 0.2362835332970595 0.06188590987859946 -0.12117102795905714 -0.47264520385493874 -0.16477334085359294 -0.3050493358721782 0.020475009248617042 -0.18089592196954782 -0.2464361891762794 -0.003915010839606861 -0.16841235807337565 0.16374752888837665 0.25543396501806676 0.13877852456022233 0.3917237649356672 0.03234409566670573 0.07521896784530321 0.13410124393610728 0.01756502417012722 -0.1645617512720735 0.06614446549930648 0.22104694084687368 0.3955045208208412 0.45582404260675535 0.13343488889789212 0.6645238142793339 0.40876317081176794 0.7516092353028073 0.6256956811792557 -0.12605172520095523 0.07869367265595303 -0.1539140824176301 -0.3677612305930626 -0.4961348933149477 -0.6365594449376787 -0.31446152727800764 -0.1331937151267788 0.09207557360447126 0.018514661558684326 0.2560815971171246 0.10528339513751495 -0.2396921708748366 0.17502073304762084 0.30883499229599043 0.09556067566709872 0.19882441477904694 0.1795103068342223 0.07924066667502348 0.5231757846284661 1.0229218439972454 2.007092281614575 2.135473348349034 2.2449711228656786 1.8154091182390315 2.0712133017407006 0.5526376050546625 0.20540828052942411 0.7975745113572014 0.6953947457553816 0.12771034813125395 -0.6869287369368846 -0.8750107214200692 -0.7451710240254732 -0.9105298708870396 -0.26101907667096835 0.1473034611376298 0.18451773883262237 -0.09115609931343269 0.2657305326450094 0.14714845623217257 -0.1903600504184544 0.2871079142956202 0.12193667628366499 0.5411182874770877 0.3041219937084075 0.6476634547199583 0.8566842545523553 1.4996745866158239 1.5112392822739125 0.9201113708375446 0.43520899379644584 0.4197364681346932 0.15370157849556923 1.1671533120724082 1.0664097398741657 0.47641311911565737 0.2759443891216097 -0.35541749206990675 -0.92384349667523 -0.8486186322243903 -0.16829694316671656 -0.8497475883120993 -0.2971161451730809 -0.120091954672238 -0.22020824974044417 -0.05880057495260634 0.10376276032368005 -0.20342177967046066 -0.19657758051506166 -0.03793460166420723 0.5202248069659484 0.9681724593016644 0.9047969687069033 0.9452113687115632 1.3197143113228167 0.9934236008075975 1.3887822453956777 1.0893541920445367 0.8069940515787993 1.5357337030580445 0.25224357254371416 0.2668059264474726 0.42156195896161625 0.08885187414572188 0.5129675655184389 -0.35905473290767026 0.17436290579146863 -0.30656029854593003 -1.3412901754184516 -1.382277091175815 -0.5859386760251097 -0.23472885376733835 0.28824390452319143 -0.04019045708557342 0.13886382270774575 -0.03304553464321644 -0.15705875649112147 0.6392955468339536 1.1046019539648801 1.6425186020354559 1.0572518741944963 1.1237339171269867 0.8165669119827417 0.42086426380827424 0.5317802851643862 1.2803696948260277 1.5372759703544547 1.0068138810477625 0.800465035923114 -0.271608072617772 -0.26378636947205836 -0.007925287321252979 1.0345988193756397 -0.26695200598487906 -1.0341749995335678 0.05252034634382553 -0.5791678235743906 -2.0022655519928856 -1.0434714810138952 -0.21098713490988846 -0.09406554580368012 -0.44835178757279204 0.14980695925420992 0.03199530413843552 -0.032157372494803625 0.7270304206369833 1.3396643417919283 1.0070765557557653 0.5813152723221946 -0.0999087824852344 -0.2749499516613646 -0.4544098925074768 -1.2098486742804073 0.058195442878505414 -0.05456939951537084 -0.29794133128871825 0.7307916957222546 1.0111364944514054 1.010272875426785 -0.38216525829516945 0.19162251921008494 -0.1002745180087654 -1.3723177126939132 -0.4053810085636736 -0.609973874864594 -1.6984414428604186 -1.306642718590229 -0.36992436946497986 -0.001876769822334594 -0.12199418989454891 -0.2128498280029128 0.006490599440510961 -0.17880225282542123 0.37324238427326745 0.3018220636391424 0.5660894455384956 -0.8555638694467957 -1.1376210608806292 -1.9114214786954127 -2.0020284854775827 -2.7312133920147135 -3.157919944211264 -3.5760634539520155 -2.3206535312588485 -0.35937004927493754 1.0918584997568355 0.874394662217672 -0.17952637440916902 -0.9746668745864285 -0.02276544915222425 -0.35141039667318896 -0.8519247978481405 -1.1173509396112384 -1.5160273969276423 -1.2155691747823338 -0.10655837931445741 -0.2400001847080863 -0.07182821056743553 0.15127900397343388 0.03968905141365151 0.07098541917987308 0.07159465203295004 0.23686762763380387 0.06255571063601076 -1.611107969244366 -2.105853731218523 -2.7977252569784277 -4.166881591023949 -4.923257360305578 -5.715901095232287 -5.021287241618042 -2.932314409118712 -0.4763577317833286 0.7066517639338241 0.7193207298386691 -0.22391074110447717 0.42193501746629153 0.41623253389867526 -0.11317570266897463 -0.5506781014933136 -0.8620596218250924 -1.2904608589598392 -0.47636528735876704 -0.02933245653062307 0.22236420172520324 0.06139725895113317 0.23415527875205336 -0.3560654914086222 -0.06441302997600991 -0.17363435491724696 -0.4485637220189269 -1.1128884560515628 -3.2844685584995474 -4.068695829732669 -5.007856251010733 -5.540879214773075 -4.292024834289711 -2.4819050517853274 -0.6310532412309979 -1.4945417857027947 -1.1553496242476262 0.3997994618568799 0.9954669201530542 0.035421914076845695 0.22727486492003038 0.7173389830061078 0.94927094536086 0.02756712127910564 -1.2703573373619386 -1.0566450438596777 -0.6642081247252075 -0.5935755951429562 -0.1982840994875335 0.3160429841020266 -0.4290268455252722 0.35137159445213884 -0.3872369566287836 -0.23884798334694454 -0.8065214986529932 -2.1298659029179925 -2.950558197150821 -3.68269531726799 -3.718595530508972 -2.789640872052541 -0.3561617942162841 0.3203332365517366 -0.3787945669815171 -0.5562717779212955 -0.06334097662595058 -0.40710020466226554 0.0688044871012521 -1.2319079384084426 0.3314402384618141 0.06603890422782177 -0.3923329007889502 -0.5598615841043717 -1.545309485923467 -0.898233871821362 -0.25153049492982454 0.051211745799354925 0.030906699477011548 0.20062198378300466 -0.22744973642723534 0.1340593084204651 0.1718303538220574 -0.20257341428713163 -0.7071748061516466 -1.456222722613263 -2.0913566777027235 -2.2272370935976245 -1.479337199633279 -0.43701165104167916 -0.6898290941630258 -0.4011537711590573 -0.5495350386734641 0.9062456688537401 0.5454240131230048 0.13387492471239903 -0.5993573467313428 -0.6968272530579795 -0.4014440303690801 0.2869717196407491 0.32215104835387964 -0.43999715959136154 -1.2830213671557003 -1.099650369166389 -0.24156248355700133 -0.3112781202739942 0.18483605483112728 0.3716732892429551 -0.03675076822301189 -0.052434893562180326 0.049922454659534654 -0.251629706696881 -0.5036129753159048 -1.0597482440329686 -1.896554083524567 -1.5042194532001885 -0.5393455260909193 0.24808880102616582 0.18141787269363432 -0.3546490092218436 -0.17755144688430424 0.6162123409793356 0.5728753108708001 -1.20787627833497 -1.1043914468855642 0.01843324393529221 0.720183727122452 0.5387938478626995 -0.3435310580581695 0.2823888063733415 -0.6536269501659336 -0.7798492449935499 -0.23112965274462632 0.1743557535266212 0.20645776586250159 0.15447681810534278 -0.12338075855524613 0.152592183156394 0.027046048542021823 -0.2061546870199764 0.2616804057087021 -0.6622293869220183 0.5009540984754224 0.4170710555131708 0.40416728508801364 0.2186797275887549 0.29894634007515675 -0.03405059798077031 -1.4491768890891565 0.6135140002356294 0.735248564957155 0.03618470916539568 -0.027009220624402606 -0.05696796930893678 1.0336390864140201 0.002036708295395637 -0.19120543566431455 0.7162607458926505 -0.10100580726088523 -0.6188303038689903 -0.3544023533723969 0.4804026733584465 -0.32688834623372276 -0.04479831298736415 0.022462147878798484 -0.06501302246508386 0.31505022395277127 0.4998708340739676 0.7491803167732287 0.48175865798177964 0.34370686009773666 -0.0755874195905944 -0.9297972201147718 -0.9550758617886739 -1.0653061184523418 -1.9796848490943428 -1.4047978952029054 0.38672550205763934 1.1838829148734036 -0.9457953263093805 -0.7491774240459084 -0.007972187055827102 -0.16201231662373072 0.009468919722907755 0.05635435326248742 0.8548299106280763 0.5017718015654241 0.03575079813945117 0.12194383347127617 0.24887389258932327 0.13131076737742023 0.06989406637565487 0.3079182718716042 0.1030111405178104 -0.2891682746703721 0.822570032381023 0.785789817364208 0.7083409384853023 -0.23121268434065567 -0.2881625636742397 -0.386371673133111 -0.43991110417763435 -1.153165595024918 -2.1617731359623584 -1.496392848056275 1.0221791196518337 0.3619668966788028 -0.9034906753511565 -0.513181436807185 -0.6798220639587947 0.26140279203607797 0.18028106498736474 0.5171089458614611 0.7975711417381941 0.9946563025536796 0.5671856225557368 0.6336300153545904 0.26155251090184356 0.386753138813578 0.23755415786348716 0.07972402423215517 0.17443728247837909 0.10405211752873748 0.8301122932585658 1.6387567070394544 1.228635873583004 -0.019615958590435776 -0.4928226601380323 -0.26389025695989204 -1.0354090617954292 -0.7885825316005987 -0.9963535871335975 -0.26804867699251134 0.3818339039727139 0.9421438963125043 0.25526715547114165 1.0554223835492509 0.33374334911888265 0.7492282375206272 0.1395179711548488 1.5254356857744065 1.1318319030550479 0.8313772058450162 0.18872863209272775 0.6878559281417792 0.4776490031539457 0.35532904740391014 -0.13483989792621445 -0.3893834453503667 0.07414028206341503 0.19870960170738244 0.6933247240077441 1.7934784570788975 1.329373021788111 0.6776174026120395 -0.5901584982682537 -0.07701585769716517 0.11180297396600561 -0.713149813537918 -1.0280749782591596 0.9597091074189763 0.6640385140354621 0.5740472915618374 0.5977378725311657 1.188159796295672 -0.06729174086814645 0.01755462875566855 0.9793538974041341 1.356478892388374 1.5345635061576757 0.9040505973205777 0.9117529573011603 -0.052484816498694825 0.02984095266540486 0.2190677551394476 -0.09177271948609093 0.21115061639379212 -0.14532535138271752 0.29998521094693525 0.6157886155119795 1.9975909116874704 1.1444208345759401 0.8112833580696014 0.22259695630030352 -0.05381287092635588 -0.2922459075755131 0.2671781350742673 -0.34984772254745666 0.0916729382754768 -0.17779380701830305 1.050596225230665 0.2662882345841898 0.7227254944796098 0.07553786215139886 0.3249154768089325 1.3468661487647378 0.6032614650480036 0.6295629132500453 0.7238614666729389 0.2991091235727773 -0.08363457313267622 0.14622508117346544 0.4135137991234892 0.37446379559370785 -0.09443565781768952 -0.14636160949964316 0.07470018747795264 0.3521321013049961 1.0642459660008505 2.1430214547580753 0.7383048381058434 -0.13028469800092937 0.4630181697486232 -1.149827720913036 0.8626982051528457 -0.7444321150875248 -0.6433498318047091 -0.7020199999658575 0.47177159305079086 0.8882377636590484 0.013902291382682312 1.0464262319680733 0.3497029001784296 0.46079423158649613 -0.30288818683745583 1.0448651687267492 0.39277012021253144 -0.12325305295559486 0.27418029543911854 -0.5564573562297452 0.02376499324978083 -0.16471345545441016 -0.05101736698519928 -0.03904110114427971 0.20108817211716457 0.15714551847105482 0.6888582964752497 1.7588209090203828 1.1833529276949877 0.961801443485864 -0.3840797168026736 -0.5450119711245126 -0.10789613843418801 -0.2684981124369486 -1.5242413805356423 -0.6809034053614303 -0.25435726814810145 -0.00173749205962413 0.5230981896333166 0.17619786605645593 -0.5424426744604485 -0.19328261009144326 -0.06409614665621935 0.04695344717772428 -0.10814366704046044 0.1546263217381353 0.44934234098486986 -0.1998730954764615 0.0292645494128062 0.19074500688640453 -0.1306247068468437 0.16676765954789904 0.10863180089282115 0.22799906541613837 0.876792957536129 1.0551634981552096 1.483844439785952 0.35933027003868173 -0.09241887857964663 -0.20646187469211388 -0.46797795995215247 1.061533167777754 0.4275310897737682 -1.0914919763081232 -1.1938352832223054 -0.1970918089954679 -0.728691040997913 -0.4236107081749959 -0.5342548428164631 -0.9770417920394243 -0.21452565067280208 0.2591543671883336 -0.05552847854106231 0.13522931008318775 -0.03825207706114572 0.03870363858740159 0.3004622972984749 0.0672729342340019 0.3054961974374012 -0.2120759230259868 9.104524117532695e-05 -0.18248919158433816 0.1948531167026483 0.20770202528478235 0.7858832136361124 0.4989202828824189 0.1927917770332268 -0.4320949304886518 -0.07990804906726924 0.19112117676867535 -0.4465669821563654 -0.28564843354430963 -0.6291110977522608 -1.091684972608435 -1.4653654041918478 -0.5846299131252164 -0.5695968276185164 -0.7345109692725461 -0.10780114108530893 -0.01531832922467542 0.2060704340349811 -0.02537865181033608 -0.09765745630300532 -0.046267189084849496 0.049216667576713675 -0.022282787860940234 0.029895068866893956 -0.16668709253425448 -0.07211080697580728 -0.17640970913023246 0.15673064294665054 -0.5562841711586002 -0.15806283657807454 -0.4284704793280814 0.1678374168189345 0.057916393983544326 0.3335741500253499 0.5817989969784458 0.261910308796438 0.9062351095551437 0.4902700024716326 -0.5016652048130656 -0.23054528899939572 -0.454645906476552 -0.013515781695598458 0.024197992080332457 0.34235431119964166 0.08578054171211552 -0.35726959648123563 0.09017027483070947 0.08983678855847776 0.028818949804076746 -0.18370902129644243 0.24318231282225225 -0.03655573779658574 -0.3231784687205448 -0.18845711741323906 -0.01892341526238098 -0.10234991811566771 -0.18689171355642686 -0.004827518794654874 -0.18026688337950492 -0.005426223245194293 -0.280760357581544 -0.46237818305784034 -0.3720896538138941 -0.1268640485140765 -0.3896239828251619 -0.4801583691054919 -0.4649866364523948 -0.2871191462666865 -0.16687479278336992 -0.14503743512702372 0.03393327386071655 0.3337463573520023 -0.105141155870388 -0.2797441554944863 0.44251988764235956 -0.1545423379427593 0.1675960831253856 0.17973156729371087 0.00699498120406608 0.12373176841093661 -0.2926282093213188 0.1137825618081615 0.39486692300508414 -0.11540029164415562 -0.011743187174408282 -0.1974151447606471 0.11907404363929067 -0.27560819840290934 -0.16181048073585416 -0.2196563766747053 -0.22021808792147396 0.27971616013645867 -0.10616234425322678 0.29794307344031606 0.19394884813458527 0.11816698882844176 0.24996676394637873 0.10377112929504471 0.2824511275692919 -0.24752827075344763 -0.08231465448241575 0.26723717728000174 0.09961662764456945 0.10630667998852268 -0.0022912258310726578 -0.11458411352252307 0.012067515827977717 0.14783755094530263 -0.06345860916169623 0.2885402961756146 0.0933499330285855 0.13271276421902142 -0.12010072558196204 0.05690474649536582 0.12358638418166223 -0.14220175750602373 0.08046923489873734 -0.27947802551197115 -0.16963508971962007 0.05055950605928316 0.08342412838810713 -0.43777054031572765 -0.18849368637208933 -0.16916450232747604 0.22126273525306459 0.08750016722642444 0.10406379511392337 0.09844844209906699 -0.1894227391012454 0.14876717724875566 -0.22605078269018913 0.11147035549743751 -0.029254314937072826 0.10708467013538324 -0.2496389946006993 0.0555336209869577 0.09947720402558202 -0.09369413237635241 -0.23885888984055859 -0.1426783448367841 -0.2165728510700327 0.15146293088307888 -0.10834660736668766 -0.11797108008386312 -0.062467336785695285 0.21990362354147522 0.13297267610876898 0.06940404254087258 -0.35552985856755426 -0.012044119355458108 -0.431942770263544 -0.2269406665696326 0.09654430520332906 -0.04639985307671008 -0.06226979937772368 0.21276073333015189 -0.009587077742992287 -0.028392413384333973 -0.060082400329238034 0.17100468653722437 -0.12403661356155625 -0.16250173859745817 -0.08390985949748166 -0.1141920793297403 -0.03313235094597407 -0.023095912250861942 -0.03381674082614696 0.08934181630349702 0.04902231752603358 0.11614118966902647 0.1890815885777729 -0.3345300295368843 -0.10818090354904111 0.020867645180054756 0.0633964726929752 -0.14201183364257958 -0.41429500165576877 -0.24642441874831467 -0.5515481676979633 -0.04382810019310015 -0.21906345457379706 0.09660538540558411 -0.23933172538089942 -0.07892483584246185 -0.31908041501071926 0.011196098858957981 -0.3358943828324146 -0.11475297730125394 -0.0580512531326301 -0.06882236584940718 0.10600283793335308 -0.32582024831937884 0.08423054081134787 0.14184660594942053 0.37119930935557305 -0.18596712404647373 -0.24521796411590552 0.17885574170729968 -0.010900327511858031 -0.02764183570703667 0.1665382067152009 0.07974381874287295 0.5014502339274362 -0.12516108196319195 0.1343473647473268 -0.16654214530260203 -0.7229880024933892 -0.3397036470096507 -0.4439110384493741 -0.579278225625055 -0.14129980360007668 0.17143644324885293 0.23783458335710791 0.02546462647339931 0.06764347418282843 0.022142493780474656 -0.03241547815736118 -0.06693716333131515 -0.05175279340089791 0.13821450222723483 0.0033265038544621436 -0.13327238000457126 0.17044005296770295 0.27782299487580414 -0.013466826975564023 -0.1615724931261826 0.06538454820641433 0.10303001758735772 0.5575002241560069 0.4771922857652783 0.5908203532345867 0.03379478818726334 0.2712762197478585 -0.18870283510206187 -0.5268792989537798 -0.03950298233035266 0.273571550714451 -0.07489991480911845 -0.44432129850244406 -0.42346997435876127 -0.16643282978862722 -0.623232770233366 -0.1459413004740793 0.22624172313175642 0.17210301985467305 0.16275174059150618 -0.26309143433618426 -0.03004647183613705 0.37323830877408243 0.08050866028584347 0.22614926069012703 -0.24176856716689799 0.12394670813200291 0.3444115303248113 0.37375012205173336 0.7817279954035556 1.4160611915196721 0.5126153146601071 0.46461741247007293 0.34878512014698654 -0.008070676345269628 0.11659361858065605 0.2783418869931282 0.5029570374845947 0.732248944813086 0.09193402061380297 -0.7027190562978165 -0.5728930051930224 -0.5222367818562731 -0.36095621628468144 -0.33875733536186964 -0.18747477211868743 -0.38818447244794807 -0.25793609084255514 0.05686882772776837 -0.06452350579417568 -0.07383927211294769 0.18637614811650108 -0.1582831835689239 0.13246062234128922 0.5590464706313409 0.6330475945243669 1.0939976726165705 0.9141743839780994 0.978963164448095 1.3728843828411454 0.4139660788097838 -0.16889724395528802 -0.45742378206409384 -0.6037020367420534 -0.6871105893201107 0.4423985340745358 0.02165714524672572 -0.2110656704114128 -0.309369509973682 -0.3527609446353544 -0.3610276396392111 -0.14132256469511734 0.045600709312323615 -0.5792430640188553 0.20277462633784224 0.0751457399624865 -0.29490667504956114 0.1593744762994689 0.2163724974078905 -0.002537424942512248 0.185414806456729 0.0617348723834737 0.09178789928610583 1.0046632429116962 0.52462741288071 0.31053188312171853 1.1611979390109346 0.6176242993787547 0.5063877373847785 -0.3489713452300155 -0.006596648800090491 -0.4146921834062904 -0.9367641774868866 -0.05646624465037648 0.39613558151713985 -0.41528545311990134 -0.05881618862541525 0.3542197560178459 0.3836453286755413 0.25512670153082206 -0.04257127954518332 -0.20973896844483395 -0.37003252533422215 0.16901747340931977 -0.0011140152939192116 0.1008794199558284 -0.044703290948760493 0.08080966693372245 0.22739539389884006 0.2500586223396617 0.003924070566872981 0.5246656534897448 0.4064512532584681 1.0191950738207154 0.5346559459752102 1.0676450294824111 0.39011725600662955 0.7230550460002595 0.3445348394188994 1.2501443455490653 -0.27550377572094037 0.37254325876276123 -0.39520902095163 -0.26919435974969086 0.31758493985056574 -0.2944101051679439 -0.022446381954122078 0.7577420404640665 -0.29971871052036536 -0.42757862092901494 -0.24217677343765434 -0.147743391507951 0.11635292753732714 0.3164511065370719 0.2185801886121862 0.10528896708936593 0.1721039415208155 0.49681216365605374 0.8120981485539898 0.16117045656550189 0.45110269460996505 0.5421818078719195 0.19862806061212995 0.5171319957750472 0.7515947776395389 0.9650419029276921 0.24625181063901835 1.1211096513649694 0.8897412801137138 0.40502511570730204 0.08795313725785599 0.7290277393563906 -0.001574003181670082 -0.3734949459721129 0.061862880914155635 0.028631651521201444 -0.358628864662306 -0.16501303803323242 0.004043929884337138 -0.2949387062452593 0.049965520993439 -0.16875834580418925 0.3219226073779847 0.05568108901162813 0.33123266011750996 0.4892876066759876 0.7151802031608179 0.28945665483985616 0.2243507465612226 0.8285749502468017 0.7397803425297322 0.6987684286034631 1.2949655620878715 0.7461648025790519 0.47718186595974854 -0.19667055127042996 0.9427419710833909 0.8293929531626939 0.16059042025431053 0.27473383084861414 -0.1339815476595791 -0.5249242902133144 0.1660943901488557 -0.6395222685902222 -0.6212640986179896 -0.30213725154646737 0.15548942920287043 -0.054361382525013956 -0.13617175665387055 0.1089649626353679 0.10152460678965924 0.23787301239745506 0.5760626729426699 0.4540337947786598 0.3338644958453507 0.6626104739466324 0.06908923869568971 0.07376022403218226 0.9903645076594036 0.11020881326431842 -0.1378323511265899 -1.2151973097840443 -2.1343522669289836 -2.072228556972621 -1.9885506218528406 0.394984269544043 -0.2832767334499242 -0.03728236975389113 -0.00971235983910887 0.21304648316166408 -0.4865491036664457 -0.7985194365707059 -0.4840711990463572 -0.16616683499593 0.028778051568197113 0.17143351266978 0.2147469623426329 -0.006511935595149395 0.2760477340189916 0.03544027512265363 -0.025278214378218467 -0.2529670012144061 -0.6157401421101943 -0.8228557432053953 0.013764296004890772 0.4441999647108199 -0.3297552028575639 -1.1471593460915832 -2.159343980676142 -2.0552182460216804 -2.7393071956461235 -2.6663299758928 -1.410176247847009 0.22966996487517652 -0.3198291704277171 -0.4375057622467001 -0.6448006184003271 -0.5802957005294589 -1.3325453740640996 -1.059033073238757 -0.8675840083776284 -0.08593179182634449 0.41152306620320445 0.17752437858335132 -0.2581874943016126 -0.09619003653563632 0.16973637845764894 -0.1651343640604961 -0.24761083762329303 -0.5524049844047755 -1.632925609827433 -1.999626860076077 -1.7376410302354575 -1.7548707307647693 -2.5333804830957707 -2.964682216886973 -2.6991958503403684 -2.4313989406188456 -1.4601481763631041 -2.421261521205105 -0.6017958839890155 -0.12469289501700721 0.369992003681822 -0.6912801741382834 -0.7086493581981983 -1.471002353607918 -1.168744273974964 -1.040664066712629 -0.619564062069002 0.1450059405011735 0.18089492523243236 -0.23745496325113713 0.121205123361916 0.08744236414461465 -0.17360108695770257 0.00025187183426383594 -0.4463972133278941 -0.8001297315856618 -1.7087128821730246 -2.7087002016381083 -2.309128256731528 -3.1252847263222563 -3.341213570106159 -2.9736175842214747 -2.362974454489274 -1.7605808896688648 -0.7700245996456332 -1.5692107344105357 -0.4438571616753718 0.1996330181384839 -0.37083434588102115 0.3598956688993054 -0.16682839377452627 -0.6275447383536723 -0.708710710034018 -0.3580315230794605 -0.39546834553252613 0.07552950898373195 0.2245935981459565 0.36643949863720787 -6.219014478878467e-05 0.08904677250578968 -0.027852070628828093 0.04977502180533356 0.058442838568634206 -0.6195167097518463 -1.6984863796865246 -2.2238456822783133 -2.9280245329503414 -2.6362145394448646 -1.958816363355966 -0.7831229030101953 -0.40446711031135046 0.08932993132835072 0.11790039220373322 -0.5239892178497333 0.06655918088320338 0.3640894847660642 0.16511782367608743 0.04130353737274808 -0.30304394740875 -0.8781145166459339 -0.21480477131133596 -0.4612043922429963 0.07880311027201517 0.6408814249451011 -0.113749855450177 0.0728867171294073 -0.003821019679724992 0.2277348914276543 -0.013308191585374596 -0.14349036769558793 -0.2608333050183468 -0.7443071946680089 -1.4723576278383803 -1.0968189242969997 -0.49861752890213074 -0.7651160921126984 0.8063387374117414 -0.5155478782653952 0.04432477016119733 0.5906180480143711 0.6712357735988256 -0.2884731218102395 -0.24003426179298235 0.337670276661835 -0.41604277178833526 -0.28306457810296914 -0.09577203160072016 0.21216909714178483 0.08071153812529151 -0.3670734334720975 0.15190262819473432 0.16252249257813087 0.6307930937006452 -0.10389612633464951 0.019621749985674595 0.2085079214119132 -0.2281231396072638 -0.12909996061645515 -0.053483243982051024 -1.1776606313689195 -0.630055736979252 -0.8385682938365528 -0.2061077598724824 0.2442878053270614 0.7799264045531026 -0.30491272295176114 0.017552727204444462 0.6711025663444161 -0.1495947008915797 0.4272280190400341 1.246192525723471 0.38934723678167354 0.15185717000647922 -0.4756060807903237 -0.8763394203457965 -0.8337907181929621 -0.43645390653712945 -0.11602273970181294 0.3020390932714737 0.6890945538337115 0.6617327630714525 0.33878546439279844 -0.048885272658803304 0.04089221198934083 -0.10698498519016698 -0.0304484434497477 -0.23688571620802765 -0.20505049121921942 -0.3567395155433329 0.2078744465310739 0.7430879468256004 0.11925168474323483 0.34893098152881447 0.6905165748847014 0.5224751075934775 0.0373298769346815 0.3826611757033146 1.150766730717151 0.0696889003766135 0.34502778118785676 0.567364231228863 -0.41984704687269475 -0.2176124065540011 -0.5146321016792471 -0.1698117610042699 0.19847740148887644 0.8368346181939939 1.198857365383814 0.4144704473362744 -0.011958766539540117 0.022852890751649032 -0.1935598568554543 -0.10470242364266061 0.06912481790570593 -0.047780978551662245 -0.3864691415364923 0.4388381638898343 0.5421301215542129 0.8160310648981821 0.6260657079641608 0.062297303788374774 0.5001137753541424 0.08597299874614649 -0.01908502429415487 0.332531574654408 0.35209605143953965 -0.4293645037726056 0.47436419763364723 0.11769793949402577 0.05097442676114439 -0.8807141479954997 0.2717796510352026 0.07457463728442301 0.6375855023419423 0.698209961027611 0.6719853859917042 0.2500406986908005 0.26495331555955615 -0.021955014607923803 0.03356639935355628 -0.05263267329834507 -0.12441901664470577 0.0013140850320026924 0.383188013824961 0.5740626439227275 0.440090738033911 0.7296204450804428 0.6104410081021694 0.8476802150093188 0.47095479479867747 0.30340008063866963 0.16549420220890687 0.5701109932101109 -0.34229447691330067 -0.1188207035682591 -0.24280510933698776 -0.45462913807290434 -0.10067327504249213 0.038196983058279635 -0.48003401998652784 -0.5517115451145124 0.011639040571598406 0.7031829332192878 0.19246297137623475 0.21061632216852236 0.22967114161000282 -0.40796638018111503 0.12347659372151504 0.059167956779562644 -0.26783252037566124 0.06351041288397612 0.49037388850525115 0.01524909809516048 0.5351330213248068 -0.4291481513666212 -0.06779468754978984 0.1377307902486463 -0.3885102378513332 -0.35271338988460366 -0.6141954820560177 -0.7030344508721937 -0.14417814068698867 -0.24894145535579837 0.4959628354469348 0.0029227682656501213 -0.7533436327230698 0.14282578530926487 -0.7833663795010718 -0.5220766161089662 0.07627092096665926 0.6807475298214484 0.3161434394507514 0.02345127494996689 -0.19741504075478944 -0.10923427474317594 -0.16523531359197008 0.0486843119221963 -0.3922257470209202 -0.22154880122973883 0.23716246771065236 0.33306904750297883 -0.32136766273807266 -0.16200257272115626 0.5676112814433693 0.4310359049956836 -0.37863322995623977 -0.10338012193865985 0.24164393761000139 0.11225383701922635 -0.506214150621975 -0.3616537702302349 -0.206519742491113 -0.48531044360549985 0.19130561275793007 0.13492689210830652 -0.4433309215213425 0.33184664748696996 0.28184917414381455 0.4681078915285102 -0.05722987974455276 -0.1290140691101559 -0.07185527330193293 -0.08971226273556009 -0.13153032489147323 -0.0845527250714197 -0.1008934065907231 -0.20215286336296148 -0.8098638912897028 -0.3444236691420676 -0.3082835602683682 0.28804423800032314 -0.24288224476913764 -0.9751931397353834 0.05466471660328691 -0.25563546363480066 -0.33418064019637894 -1.042981509315658 -0.7731490282430192 -0.3641376551734892 -0.4849980989341237 -0.5106415355652143 -0.25024326720567475 -0.1794672515576942 -0.19800830312253084 -0.45298976309094163 -0.3930082693754069 0.20614788737886341 0.1305100705824526 0.14296482720399142 -0.3546514921638947 0.007928235813429779 -0.29808625305224395 0.12929595459814427 -0.14224175066483902 0.061204319478857794 0.10852756829349247 0.011058789653189599 0.04554604398006331 -0.6514554642336753 -0.2254184344280593 -0.09436655624522232 0.4323820642965751 -0.01464092442119976 -0.6083310893358312 0.20820172014232144 0.18759747315650713 -0.17705627630939988 -0.1761160362410108 -0.1544321589073454 -0.2698652041963471 -0.07457943453011785 -0.7196819853783754 -0.5922803600663825 -0.5501551004832727 0.07958844954436121 0.3128687007314191 0.31502512883376005 0.32064594084950376 -0.054510678944911496 0.244802925192616 0.11092344760121058 0.054516913652247805 -0.17118383214888389 0.15594770955263362 -0.01605954926771779 0.21642801270063156 0.3022780295779413 0.41941381134434264 0.9065297687011651 0.618033156233367 0.3736180716844048 0.7093465567022276 1.017077379221994 0.5831050927215254 0.11549238252946298 0.27764576452950035 0.5620644740910417 0.22508766080236603 -0.004662289186878308 -0.18340914467801817 -0.0475040608084029 -0.03911009636141918 -0.24575285300735028 -0.41940665717189357 -0.18807521572471728 0.10689121460098908 -0.14409612257829052 0.3314278183059989 -0.12470490319989935 0.18690359437010268 -0.12536363855332497 0.0010757938460505844 -0.1120063756741628 0.11492858792664984 -0.16286654087648633 0.455571822853974 0.3048762904833879 0.4459449135861486 0.3830500208840466 0.6678202255727598 0.0071509061817838105 0.09523677130727762 0.41975974295079804 1.0028972020168994 1.0193799898791922 0.33602141065283264 0.03066790393731563 -0.2871371329149381 -0.3380333235216928 0.19485672036056104 -0.12928640253643028 -0.1576864018199437 -0.10529960732488818 -0.020617541780114542 -0.2184887699657586 0.04810906219196463 0.1070828090271715 0.023919337180374298 0.1281133424770532 0.05423021427778718 0.23337404833709027 -0.08142842874961417 -0.36713755101573287 -0.08562224620755773 0.1432793366573354 -0.033133884968094135 0.08483979710255804 0.4744594016074323 0.1789911930368779 0.19369267800696355 0.42586589858451274 0.19694918188286584 0.199261677254306 0.041004807283436216 -0.2585869202047248 -0.33973606367088044 0.19680599635364604 0.10693352979782932 -0.13149411657786586 0.00015214371019010335 0.007590436312580725 -0.013947441254941018 0.18925158805241157 0.15020619260448687 0.020476005003223288 0.0810289302800997 0.0709382150621041 0.03450874522872099 0.271669365777449 0.19180330723051917 -0.16249258858624355 0.014487592505668686 0.23001855414752342 -0.050591961324132496 -0.059413995313597624 -0.07630893913140384 0.0455801941434767 0.08660143202955119 0.19802736428950551 0.011660395543141173 -0.14847747034512132 -0.16156834312159 -0.13389579634652451 0.08363918943919861 0.3882166294420867 0.0012073442152524376 -0.3273107031873625 -0.07834160341930001 0.17090155917653171 0.03442458977483836 0.33985663418493184 0.07787254827572504 -0.1835774098005649 -0.031229135877049594 -0.3060149684286506 -0.05003428759487537 -0.16343781781068548 -0.06948310225612189 0.11497611097333894 -0.04104585541634401 0.0011340130110612404 -0.058288134139063 0.42716248535389456 0.04417166727565521 0.1683274717852627 -0.0051905329142267935 0.05486523145998964 0.3305829637162978 0.00935637948341954 0.05689244096488798 -0.0956611866678998 0.26569582842912237 0.03326874123626051 0.2211359790520379 -0.012628168387019014 0.15205377522388935 0.0558227272365398 0.12158119763345457 -0.11029599027017571 0.04083086423760111 0.18172912014666856 0.2595785326110991 -0.2792353706616942 -0.35019072626612807 0.2661453538075991 -0.33088061041892536 0.07621080924203255 0.16652192556207207 -0.08809930367156937 -0.1694679818395725 0.17650288021298124 -0.1779134805197623 -0.1794850882225216 -0.2473554183086818 0.21841369587715145 0.23665375761201443 -0.19309845990259375 -0.47672683961454476 -0.3615737347037483 0.24495770832968808 -0.11371626367575965 -0.07625039478447203 -0.3698730263133848 -0.24183247419301146 -0.20311722640430477 -0.07363124940635687 -0.1726421494977658 0.28221248945281446 -0.12403812109133755 0.09960512251580074 0.1876019802141578 -0.14251686977681718 -0.15607904853202895 0.06091741396971561 0.013834368517691032 -0.05976056925176921 0.43778819372727434 0.31696999049907487 0.2657841392213853 0.3278487270570326 -0.3156654140235493 -0.030779627275865258 0.19685179420191914 0.30463160398063416 -0.28045777901063224 -0.4107025088307953 -0.3407383798799773 -0.5529057942593412 -0.5031563696101884 -0.3329107426952638 -0.5865140630636742 -0.3058492652150741 0.147143574688717 0.17455466545207846 0.12144447987299624 0.025109391854884876 -0.28569580233876535 0.12776222260896014 0.1529038052231058 -0.04898233292644489 0.07087677627831387 -0.19169081125149526 -0.061628718542488956 -0.07620646818379549 0.48891160696798674 0.3836104779859941 0.34288278837128167 0.08592511152131911 0.05134050348006998 -0.03648889372364599 0.8081704797808104 0.5092255719307006 0.17301414555265118 0.04028668308812268 0.463111135485121 0.0949816790034154 0.11180819534588214 -0.4505984465351445 -0.565399206518498 -0.1144287664698856 0.21496143486419955 0.4863409868036945 0.1116417407155283 0.2294474764207684 0.42477655829228855 -0.36498028506563224 -0.3111665173644886 -0.17132371747609806 -0.08063383542414097 0.21074878023009397 0.24909136680945276 0.27465194522434117 0.33406544773765473 0.20477084440339546 0.05815637897636849 0.5599284839785991 0.36069644257536554 0.16656451754030596 0.581918023715871 0.1315356166307921 0.5412646222224157 0.1218067755203228 0.654341063973662 0.5630419123447565 0.2928298061782267 0.17411322708260138 -0.034187922848479144 -0.4448932275583464 -0.04902974352070307 -0.011715841032532514 0.14071229431729104 0.0548401540966342 -0.026968083931480674 -0.11846726192390031 0.08720365239454635 -0.05317480598830602 0.23900719222261116 0.5844336010608093 0.47005178638525935 -0.10371699914386598 0.17453781547123817 -0.26471058717536283 0.05815138405589374 -0.005637446406332615 -0.7328733077421997 -0.6292673055659921 -0.348223628824254 0.3172137537225237 -0.6892557114622118 -0.3045879970599123 -0.5525998213116575 -0.07649628704437957 -0.09750238877450527 -0.6873277135212007 -0.5658374628298921 -0.2272574034616068 -0.019095861421956448 0.03207810911740179 -0.08600060949481964 -0.2159438030267908 -0.054752397006901266 -0.037218666110365436 -0.20762813377036587 -0.1988474448414412 0.5167106683098216 0.19818610495921596 -0.0710575145353714 -0.20693802938520944 0.726731502088301 0.5545237385520071 0.8054718599091809 0.43216772903367856 -0.3545978328983969 -0.447275635011733 -0.5882199924609534 0.31878824246861315 -0.10387765511769122 -0.05586185380989638 -0.13678600710062178 0.11805407818575153 0.6477340511075843 -0.37703751985230477 -0.8008072034651502 -0.6012757886824521 0.22298904463574024 0.1036486794356616 -0.017898633037582407 -0.1723333368190515 -0.056366672097328284 0.33251983794348416 0.04203231352575172 0.4940420112328495 0.03141545069823235 -0.037638437892088074 0.34330708661006387 0.23166629522230406 0.0022824491502533204 -0.2949844279019477 0.17046415698763975 0.5344553886113081 1.2704273280385174 0.44339854822588315 0.5745967231814842 0.5419834440579252 0.5508747540334729 0.6074795533828633 -0.21981170498621905 -0.1446899352657915 0.046374191639086716 -0.5410122677563509 -0.6195765430002332 -0.6975519662748202 -0.13472598517336343 0.20480448011010233 -0.2472942792295775 -0.10123284223509746 0.10249024812556112 0.09775557617041855 -0.037517392293313453 0.16410102341194893 -0.10103295388236035 -0.5754994845774032 0.32328776797781916 0.2860953793524244 0.5274934736420365 -0.05813018172548361 -0.026122173133218577 0.08270378934873605 1.2423734196403862 1.3414594438560392 0.22909127489509892 0.9336302187328523 1.331793900898864 1.3682269848157966 -0.3522783778768246 0.136987858892279 -0.06478267561873227 -0.6400831027161451 -0.45596864555831834 -0.25958196220548285 -0.4082535727599017 -0.158805459341319 0.12676089322411618 -0.19121957537617326 0.6416263391515024 0.033840596268057625 0.09092015244184476 0.02014137282857982 -0.49555763044973866 -0.6297930611463188 -0.41928541348850723 0.5471748351950763 0.17328509521217905 -0.4357836246571142 -0.607440077682109 -0.9625579028650127 -0.11344273694865471 1.205352915857567 1.0426173885497791 0.48619631296864163 0.6513608958612981 0.44143553006016517 0.07533879527965048 -0.6939653771291431 -0.9163107696500838 0.015570593509326625 -0.3581071022580158 -0.03787548510737544 0.5986750889134773 -0.01593432747512599 -0.08326310046992817 0.19394269877882003 -0.03254587097386284 0.06209396337330326 0.19674153226054772 -0.004170644613115504 -0.24721004809722597 -0.9655769283540708 -0.8772159350925186 -0.6966814433046472 -1.4448781308009226 -1.6168654276236074 -1.7435382538032207 -3.566663408243319 -2.1946664774153173 -0.04501529065742002 -0.2345532246853343 -1.1547774505189992 -0.9607383265742594 -0.8893969356317811 -0.5396555598840033 -0.976692961728177 -0.12621439505009804 -0.8057143082175279 -0.5577136808442152 -0.5180179917797318 -0.23854442251978086 0.024202831647822255 0.23688107914482867 0.12096770692831033 0.11965375553092886 0.09269148371679703 -0.14638589891513304 -0.3679657461923552 -1.0213299287160276 -1.3751773090497512 -1.9917529258112947 -2.974067653687814 -2.973850768704394 -3.033347578485885 -3.8092212616568886 -3.9077908316786356 -1.943070155876534 -1.8318113967958316 -1.7718806683137185 -1.1924235202315325 -1.2867907778909025 -0.4487103162076223 -0.46660429708872775 -0.021857316634394212 -0.3185869981413729 -1.1623394481656573 -1.0786582529599782 -0.23642513343084504 0.13399394808451942 -0.009644164114108114 -0.048088778154215556 -0.10126587985774366 -0.09996839129249752 -0.11196756005830927 -0.21376214236107255 -0.8056290972406237 -1.529402348020387 -2.226780123001574 -3.326362121625835 -3.910136093245271 -2.8947792393217 -2.7918305744132645 -3.2469815455124724 -2.014636558047692 -0.9285531524754458 -0.4114876146947866 -1.1616590430504625 -0.8083302448509851 -0.975459479118692 0.1494326439793181 0.10982002785679208 -0.4179661812050583 -0.5947849505967449 -0.6642170032835456 -0.720174060196492 0.24743928086955383 0.3411885364170654 -0.17483731528157193 0.14809842659638928 0.11167158216923764 0.24774625974485562 -0.010596628036462299 -0.26257641698708883 -0.5945031665759467 -2.249982155024153 -2.3676057700384265 -1.754617516333855 -1.7123461865516665 -0.2867388392703648 -0.5893648279378471 -0.2970419360472202 -0.06170154999752978 0.5359713672918632 0.2427668171668273 -0.4551895996001949 0.42718457559977585 0.2554994928007358 0.12796468428443375 0.10112624852059447 -0.1980484390656874 -0.5132518100582159 -1.2272142555041947 -0.8448633065535373 0.06523445955163058 0.2977644920204479 0.7866078312735377 0.07093418365430308 0.21663235344820558 -0.16024015637876468 0.030174515097505974 -0.1670032168994586 -0.9364265606357397 -0.9496973233912153 -1.0160212332539706 -0.33952799019889424 -0.22893343484492631 -0.3566750315774141 -0.19334110745341124 0.1546586854626916 0.8394794191080598 1.2835037702080985 0.9531693716182988 -0.3559914983064438 0.2953530576612064 -0.746225252171726 -0.33446417648979804 -0.5551227957514581 -0.7132754398905771 -0.6961171580904245 -0.6926336449767011 -0.6932552924872779 0.21127607846529847 0.9856952037801118 0.04962180162045075 0.10746166515422405 -0.35202619457797873 -0.13245014033274397 0.09109820452025544 -0.46183772213328633 -0.9461995113714121 -0.17581080133260735 0.5754692974779996 0.1567626220341953 -0.16628308239507184 -0.27941870593939944 -0.1749586954394881 -0.3847218086700164 1.0990135620130579 1.108806749796527 0.5545872830075311 0.5545882746056962 -0.321470436184879 -0.1225949011992412 -1.0181864276944896 -0.059629093582270316 -0.18133625778358833 0.3356758979907774 0.06854275463826635 -0.051512104464900975 -0.13583383325247814 0.11065285889546358 0.40010204754996603 0.1170614888959718 0.09100209151629417 -0.07736554479626884 -0.14366746331934777 -0.49383415579023904 0.17980759635508606 0.772629513700231 1.0779826058938329 0.6294340061187357 0.35073074671300003 0.4891127606414754 -0.033539664513615806 -0.31305380169713876 0.2399328925433482 0.847214359689489 1.2688889750147156 2.3390115296783476 0.6792638075285383 -0.007706223584035084 0.11172912727479466 -0.3749937655084689 0.32522201256597283 0.29334218135390816 0.4849059359046516 0.2231233244517789 0.5315609311465992 0.4525724932553256 0.06746720220962991 -0.023011597132145015 0.17026353315946702 0.17116427169045373 -0.11853961938986782 -0.6236856939091124 -0.14855355299645512 0.7203994643287657 1.1492800461633572 0.6252508081677445 0.7563934357378186 0.6242719542900864 0.07686888769194235 0.033129526502836314 0.6847740788574804 1.3827807319607672 2.655552568407488 1.212936337692747 -0.03139702843541521 0.0969677501205817 -0.8645138879056299 -0.657197989528273 -0.11447308817624674 -0.6247620564197249 -0.3375708527105315 0.6741217287484053 0.9361553203034072 0.623131700401361 0.12166245453904143 0.1125689982130352 -0.011858641774601017 0.2588247959997666 0.25651058054641757 -0.055126991503306993 -0.2713574861150467 0.3303329300362639 0.6028783584289423 0.6356852877125917 0.30532185347141044 -0.44139469021965805 -0.09033961603217358 0.3287361996072857 0.3266142525501014 0.2947028273234305 0.8171857187493349 0.3460437718481921 -0.1407629310467683 -0.2996181301631777 -0.863428950634079 -0.5679296512172419 -0.34843183697643904 -0.5724392885308652 -0.15934665375971824 0.45877127067618595 0.6901989755526639 0.3091398450420224 -0.11834641730682978 -0.05844961237455839 -0.1459310830537826 -0.16569194829897632 0.11569947197698086 0.49489355567441873 -0.0546168771515051 0.47046500515792283 0.1046220454494772 0.5104688060379413 1.4201614623063246 0.7964019353239623 1.0455544897291331 1.0650875780389184 0.3414685960700018 -0.05821060055037348 0.17272954981512031 0.4019866255469407 -0.2293678021063452 -1.206898314448117 -0.42115425347487767 -0.6468900018254816 -0.5828629709305471 0.21988003957051402 0.5803741079141179 0.7112191938550768 0.3065731464110348 0.5367149448016061 0.21866946254580624 0.2517511129562093 -0.2903839757889376 -0.08727639093805684 0.318123125857153 0.3042447773055661 0.4799133619816443 0.07611249756260585 0.03799458041838996 0.6696191957774349 0.8070822452920232 1.0336030951389235 0.6129157708983336 1.0010500944409173 0.20385488100299745 -0.07544249966743122 0.37274009606253844 0.8632602356958371 -0.6680847626710339 -0.6748140291718865 -0.2688809343073358 -0.7086121990475989 -0.5453253182152801 0.08589059086639736 0.24877672529511902 0.7357650458881321 0.5831913628586962 2.257883417231839e-05 -0.17100287209705228 0.2591475548299719 -0.0021280860452921623 0.1047715295197029 0.06720321648552485 0.1233402775486634 -0.10730395395947691 0.2542452008460815 0.09482034380244293 0.20715423812414685 0.3752479222757197 1.1566965814402834 0.796838958188164 0.42367330902249717 -0.24735092419047364 -0.29631253084388715 -0.8096987594835726 -0.7634672447673784 -0.3726110059317178 -0.5251056490988993 -0.5206862083962286 -0.3268843869813094 -0.4931587296926248 0.3853980039317264 0.5959778135465776 0.3483044656723284 0.320189793624029 -0.21392486609341446 -0.23776122588186904 -0.18983084054429888 0.29933340548163034 -0.018474997415937562 -0.1604955719655155 -0.2733653058551792 -0.26410226606970977 0.2399246513197073 0.5983343753064819 0.13414229613580145 -0.897068320446547 -1.622550689180106 -1.6588159002187952 -1.0441304442548283 -1.1049798627984337 -0.9951613853287723 -1.4859042564299743 -0.6031756322674295 -0.08409455307309928 -0.22688193329886724 -0.6197517559462219 -0.39170760282006384 -0.6368192783487291 0.1134695541702831 0.03199137253090606 -0.0014744446380601094 0.1852804242928925 0.1419694013287088 0.0959472623471277 0.12638774677317943 0.24999057866513594 -0.1988938067993394 -0.03790346770194962 -0.26386075893203226 -0.4360175500812829 0.18165602711464165 0.33957779495553153 0.476513356223601 -0.6500039431772029 -1.0108969375309675 -0.7926251276929844 -0.9946992530426119 -1.0181931157685884 -1.0032236912048298 -0.4372250281949576 -0.5040349802271861 -0.2029975706005618 0.07667151299479094 -0.6973452895900739 -0.45744396957563443 -0.5895173321631165 -0.34121119709923614 0.028344818273186023 -0.22582459127058935 0.41351895712615266 -0.2470798089589853 -0.03079158050659468 -0.18087234680575742 -0.11959189768952862 0.05363385888326103 -0.04569924869762484 -0.05756288823733624 -0.032958836170148914 -0.1130871450841391 -0.2395855385052066 0.35558228992569824 0.1451756780599852 -0.16704271632885265 0.06842812478415809 -0.07046645910929213 0.5858666668925826 0.3602057330128367 -0.04137970634236637 0.34168477865213376 0.3772566829201981 -0.04626022369775815 -0.6564919666000382 -0.4516943540204502 -0.5103401017599134 -0.6833742632347248 -0.15601852830564508 -0.07052276837080614 0.22928453845386515 0.2244628478247614 -0.5205060594821105 0.14820160752586428 -0.21461868104871604 0.15544064838991659 -0.16175887065824576 -0.168612530385144 -0.1105734563627355 0.047205927470075924 0.24678189184362653 0.08510001363210076 0.4922923193046328 0.4661264394727311 0.5052575900861842 0.22115647150506526 0.466301196558271 0.4096703994072305 0.27483937444960993 0.5022374244467958 -0.05646199858685734 -0.31894068510552614 -0.2078188009627091 -0.24242635464316442 -0.045239225058560116 0.18470837946875954 0.10734127483743124 -0.06799106871277587 -0.13249345382859895 0.10549047747162885 -0.13278540008485354 0.12706165307234363 0.17480726330811325 -0.0508125385479884 0.11982558777415159 0.10840378701383932 -0.2695225482234681 -0.027685019485652756 -0.040682765834813006 0.15644513900482482 0.022415646322477528 -0.08398904787354645 -0.07570760531927345 -0.018527648229887048 0.23534514556530706 0.09440416125848146 -0.15381726510350976 0.06373616745832475 0.27412230575621666 -0.3690931887831749 0.1277753140826292 0.22877982464326727 -0.12940153103297072 0.23815450019419476 -0.09949492259344941 0.01378506282843075 -0.20990978546434697 0.12180855759921633 -0.16973008515056912 -0.031824798510124985 0.04307441204338754 0.05789744152332661 -0.11270561973936012 0.33021395238138374 0.32981796963301846 0.25637965960104964 -0.0775123339387171 -0.2964076214268808 -0.04909889898316776 0.06794865626963632 0.17580291528534647 0.33242447530356756 -0.025049377298959247 -0.1071183083097795 -0.42493035765653575 0.14627960040630217 0.00805839621140743 -0.010508985615414785 0.031066262937331227 0.05427513882608599 0.17480117284613397 -0.005285202053221158 -0.2787930889496983 -0.20994024262851332 -0.2558104725664997 -0.0581104768296303 -0.10255704897853073 -0.06049491672034193 -0.15854385474856536 0.11522678724460239 0.05680319590431563 -0.1638157904135029 -0.42579352874862564 0.062153538847322096 -0.2921900564618862 -0.29341143216729326 0.08380758115220324 0.08683963490807918 0.2553499414842172 0.12226700966642717 0.12015735862030667 -0.0012191035415488845 -0.09565798333332869 -0.24858400044521947 0.2782055353767334 -0.47584430153311824 0.1249163124286334 -0.10672737257518333 0.19840717670831926 0.04470251333210771 -0.01772437459590444 -0.10700973365876551 -0.33968237294460873 0.147712804041359 -0.12611328498892702 -0.2393644314435586 0.0017097160364093937 -0.06076088118835849 -0.2869368866079243 -0.10363453742078046 0.07887738074019562 0.1286779760993749 -0.21995596741043552 0.04573422132774078 -0.07604787361168586 0.1332892944780718 -0.26292286857466196 -0.09639499708953023 0.3297715681958237 -0.034144610580668984 -0.08561722917806575 -0.02125331358836928 0.09544604789014223 -0.04159310056929344 -0.058287907575325044 -0.06688653978026038 -0.15577058662507834 0.003966123676570419 0.026676701660208805 0.1427930915024369 0.2658138720922551 0.1559598181158365 0.21351584767164686 -0.09383145959264941 -0.2750486372949889 -0.24814705110366456 -0.09248093965375148 -0.10162782061483176 0.30460948528114457 -0.029213096365305728 0.22673345800110875 0.24439940922515677 0.27267187882196986 -0.10808178766599058 -0.1139650168427603 0.3495573399095293 0.2347252256552018 0.05255246775248642 -0.00030050980346867117 -0.44897345498091074 0.20786501245563618 0.07174393882376424 0.16725186693216582 -0.04300505807613232 0.06648271982656803 -0.2532994063542223 0.17355421669103457 0.2948063568899109 -0.11819972779349942 -0.036275516116494065 -0.026642180421121 -0.07921810118688728 -0.02036688098833712 0.28428211603823594 -0.10360527686193355 0.11095961373437302 -0.048595097298135596 -0.431671987094181 -0.05366449774563014 -0.10346434109642036 0.11444778519303615 -0.1217645741816184 0.152421936721471 0.11628765950125805 0.02945672733318586 -0.059336800519919186 -0.12497771416671895 -0.08693251514977918 0.3496955923344813 0.023765061718226173 0.03459800710016755 0.18539740739034163 -0.15873144671726877 0.22817862753878754 0.15615773561593477 -0.006041852741408047 -0.020095362768026582 -0.039148153632912006 0.06529716140377494 0.01209544924503948 0.22094056847333637 -0.16750121341606106 0.09878567122747164 -0.08467567883297433 -0.2381918998162002 -0.2096793096154052 -0.0553650778471634 -0.02172307059535131 0.10659983585122695 -0.018806812735761673 -0.07989118846403229 -0.16613841205871802 0.0019245493930797886 -0.011727599230514104 -0.06543802487746342 0.30126156561717915 0.1449312936342382 -0.09264302763851412 -0.006464672461133911 0.3501856607319017 0.020569637099769042 -0.10034869346593785 0.0867186985354496 0.09253525480723417 -0.07830605468090415 0.15225744586148549 -0.05717430171072854 -0.12593684091994084 -0.016000949850870798 0.07610717854622638 0.20627791425296776 -0.010099915676704421 0.24898854725979241 0.08517767323318147 -0.11799060666152028 0.040137064179363455 0.1966267547312303 -0.1844781949976804 0.14234916959856597 0.016189545396243385 0.10402572384420561 0.09982427908598904 0.12967206916301022 0.2499754775222332 0.33467683200757364 -0.0435916499658893 0.053079725452454395 0.19611799439904254 0.05106241744277966 -0.03115892470050461 0.12099176633390306 0.2077687768958882 -0.338610247274455 -0.0018329918886799304 -0.02582980455656059 -0.2810176234456262 0.013068775316061305 -0.003799204040117679 -0.4137901331095104 -0.16202249099703772 0.15261030792482028 -0.03758430770065906 -0.07122186323129384 0.1527291378030553 -0.02655875474319185 0.01636238928125374 0.2064518438752271 -0.15412829958330038 -0.059068605652523344 0.1681332686005635 0.20845539258703083 0.23557424654802148 -0.14650313091649644 0.06653915079883092 0.08392676530863796 -0.10663610559999431 -0.1365753428450359 -0.10027529868476515 -0.135249807050514 0.24834836499971658 -0.38751872580024826 -0.060333980856615226 0.05761417048252363 -0.11282158784774172 0.09032317100528325 -0.30756623003432887 0.329907033491232 -0.14521180623413515 0.06999098044145888 -0.10558024861429152 0.1959866483211464 0.14111192499442524 0.08309679538923594 0.11351974934322742 0.12648273137489802 -0.029081783989839207 0.35390162658648905 0.17812507491304735 0.15408553082495674 -0.005517592613796204 0.34545528860014385 0.07762811845995156 0.11632335709171332 0.12793298738704348 -0.33540422760962296 0.06640877749601153 0.23486612703583956 -0.23455112975887757 0.09576509514232519 0.37427559890763995 -0.23170903860825115 -0.3155086002596556 -0.24468034846016556 0.04722584785529599 -0.002553312506714095 0.5278609964754034 0.2235548654006846 0.2078076559267711 -0.07876434177859848 0.17144154511881027 -0.08375575170818897 0.1950616881238062 -0.11113742632637313 0.2658741436291114 0.1136605940560225 0.2732409133175703 0.29656448178959893 -0.37117797998222624 0.056108142723954396 0.162310359753679 -0.0006805467578054018 -0.004942149455211241 0.06490064081544725 0.040691012357435004 -0.08355526287650573 0.022115458835780966 -0.005780481874876058 -0.005844717693377298 0.06615474607373714 0.36183654081060485 -0.09410801887063339 -0.08576969183736732 0.7251701353533017 0.06906933973886865 0.13242989280228148 -0.09933940463412926 0.010711321533020584 -0.18255002510754562 0.11211666952010099 0.00628253451265527 -0.011179752623760596 0.2960245770475941 0.15241940828416736 -0.29340461378778815 0.011007245173293592 0.11989302034262181 0.467465405685424 0.0939153992283126 0.24633990181269988 0.04101698057412255 -0.20672369908731075 0.14996856407627362 0.02341629476256869 0.4040977960024725 -0.021367625162946335 -0.04172300013955637 -0.13883327503887366 0.033168114846668845 -0.11266608795878179 0.04415074421579328 -0.09873375423100682 0.0237344659769852 0.19170482593640467 -0.15123012914451248 0.12288174097075738 0.29907448224417815 0.1722606624950375 0.034424262061679305 0.004191201449758509 0.23821351983786368 0.1900902892216747 0.009563863269910112 0.08805283979781288 -0.034880266025564016 0.1584602608562599 -0.014322634703708358 -0.021902045117649288 0.2263571851032695 0.08028110131599289 -0.09294130968111658 -0.057593145732236194 -0.04115029155001887 0.1486486727689904 -0.11240956853717272 -0.02468443834424471 -0.19145321225266188 0.26033194376774293 -0.1376014013950566 0.013827106323493385 0.29125962266213656 0.038214288945842306 -0.13121526752004892 -0.05247243491486448 0.24831566396220478 -0.14584609935700335 0.07195141897321249 0.20144742829587398 0.6487306475677339 0.2743200446086738 0.4062753273347965 0.20696417264515177 0.011777317566926617 -0.05224126934187164 0.19582525225830413 0.08388581067328019 0.17444573704013996 -0.05522037296245454 -0.1557560905818694 -0.09201004921892242 0.27736479240821943 -0.048535127100788375 0.17438712177004564 -0.15090744805887132 -0.039698031319974035 -0.015393443558708957 0.008587540524789342 -0.042228615977076306 -0.2887669129281438 0.29961699521698837 -0.09342395880557623 0.2338356935716725 -0.10996490230123433 0.44242187130545313 -0.13817247577093503 0.02048059237921137 0.28669635945043537 -0.08874059187524362 -0.009445207076813678 0.0296366894182979 0.014080217700649015 0.24095590566351466 -0.012377304398327807 0.05241840959157396 0.24692913619595053 0.19490057282352036 0.14836935727763498 0.11288517801629724 0.17376909998744147 0.09821667501418323 0.09850641409981419 0.08280246427681956 -0.09144217221128993 0.03197678961604582 0.15662106524450656 0.037074496984449944 -0.14478701786127277 0.040015053464620955 0.21052841498358957 -0.1552639444092824 0.28404098290059576 -0.04393697343279848 0.1044983118478523 0.07029544519601463 0.003312365986757589 -0.011039356277394826 0.3729882957683342 -0.1331683278556971 -0.11642083323536699 0.17892636169630544 -0.08301753084611736 -0.06413817732889206 -0.024063937290043868 0.09345128894418754 0.1573330138270123 0.027969808379539395 0.21304088063441728 -0.0899435924637904 0.2657122469467409 -0.011970270759939563 -0.15905953807128398 -0.008141633968146416 -0.10814054949957191 -0.22911099049497197 -0.5259198146741058 -0.17250652567768673 0.04873442809724369 -0.17064725217026244 0.07836509535888415 -0.048020191286335695 0.13924568916454527 -0.12593982497741205 0.17658776214229327 0.013235080957293062 0.3436197892323688 0.395483031588054 0.061225727502033034 0.04958112851865315 0.06032619573612881 0.0310235282202083 -0.03995448458828561 -0.08113111335589901 0.1621483854279217 0.0811711254449704 0.18713540269084894 0.19628511903128684 -0.28498627516359076 0.050676449684402984 -0.054268542003643144 0.1219106907784265 -0.09316012142199702 -0.16973339656957384 -0.18271874006105876 -0.16930921547725378 -0.1497785385980889 -0.015725024689076283 -0.0344017947539249 0.10002798460606505 0.17019151947869557 0.1487774516397647 0.001241963822905598 -0.1250296334771045 0.08302089454882255 0.21048046096898768 0.07381185833591175 -0.2688881650354278 0.25932949830078383 0.17375749408990449 -0.034464062010899285 -0.03626823934401303 0.3994407578489606 0.17356665588973313 0.14783164827094641 0.016068242953572773 0.0026124394033403145 0.14411192931602068 -0.18985469242832081 0.010474728102069522 -0.0216770951860986 0.08992598408882409 -0.19745674013494838 0.08914446190098001 0.16239487959892723 0.031670353179205225 -0.11348297853105908 -0.07146753419393714 0.02555475174498198 0.10165017012497363 -0.015035512437389487 -0.19926691525759252 0.3656890375348764 0.1538479394731722 0.17614405922401624 -0.16891627629420342 -0.16506511149394357 0.3453559861490905 0.006458052486703641 0.0881199445467978 0.012015971901539172 -0.03138412611751953 0.09088931609134872 0.1730128585499852 -0.11747486438108985 -0.11132933406116545 -0.0037981443725787836 -0.12736199491596323 -0.003034667003005877 0.1992581402144403 -0.33817814656372813 -0.16570641214929718 0.04927110867209858 -0.17374670611748913 -0.06594697010824693 0.2756671069732123 0.31797877606760955 0.14870515358057748 -0.05322076169558338 0.05898350846195627 0.033311483228457055 -0.047410991978069035 0.0233795592176158 0.10200705430593002 0.2145038219653095 0.24451517095846645 -0.10690784115222493 -0.024644854888070042 0.24782659506835597 0.2877103360272298 -0.028783696631628875 -0.16745610358746116 -0.304679913456117 -0.03402598846745155 -0.10749145161781548 -0.13257207155828263 0.10759235151532436 0.07104383193440715 -0.26884589676332327 0.15195827987251956 0.19072524626352214 -0.03682925195471291 -0.2099210586278686 0.12305660521296388 0.08689885511770244 0.07594035126126705 0.09611686235175654 0.03337523189772586 -0.03905810806374628 -0.07109621459934429 0.24096248430373216 0.2587199537826855 0.08976901147273764 0.1060371344994693 -0.02116348432644822 0.17867447822325053 0.2568135917946978 -0.010516253336535643 0.3856900767692535 0.4510302555078822 -0.11287127749978951 -0.020466580969778953 -0.1454885564598419 0.18572678924289243 0.2626738405076447 0.19436487735210822 -0.03491352625355504 -0.21035536073195313 -0.08538710411402188 0.1620367675552033 0.14728919922786504 -0.0562404239437679 0.0896212719922537 0.24030688192395716 0.1989113359064514 0.1655112659494613 0.22350376453787638 0.3132812798788446 0.05014451732098332 0.07801432038254293 0.05478427647780876 -0.4420747993811886 0.15369847224868227 0.006839097860062892 0.2054089823695464 -0.2454378530658024 0.11403963702660719 -0.14679290899469913 0.020267309540369483 -0.13564973719482362 0.047353065802406724 0.08646744441478438 -0.10697495085890199 -0.1075620123150045 -0.018901961462292245 0.1565819298491877 -0.07266339869345652 0.19583054920367945 0.19273157864817872 0.21740551040309442 -0.07501041886876324 -0.23783233170425885 -0.1408017221696687 0.015339873425570038 0.3084424912025494 0.2666246628250574 0.1544101462846205 0.17750239195085324 0.19838461560367793 0.31242585729688166 0.0124715446101208 -0.11548641195793947 -0.08749249097965721 -0.4505908360215272 0.0833434449452126 -0.019596306597625558 -0.10248921156396142 -0.06428910627739332 0.3370731043247004 0.20090150187239236 0.23782174245989704 0.12738172340499612 0.14077174851350863 -0.31203226300327225 -0.07098399789502864 0.03252136824398785 -0.16984976837742471 0.19784276598908207 0.17388535703698882 0.09205273004784388 0.1370312990398187 -0.03900994259117452 -0.1205744835587169 0.10317786402840826 -0.14526418211013808 0.03210909116146832 0.06553759132938201 -0.19090691669654344 -0.11260943527581546 0.30208274769778853 -0.04303096667553802 0.06897139957830345 0.004529314735330791 0.20453531550551324 -0.09915532963488989 -0.03411065634780374 -0.11590883189520243 0.2394657737773413 -0.3251309776994749 0.26691027812130996 -0.06883115145114427 0.029979494011830837 -0.005773274109659451 -0.0123471016347298 0.19060119194241892 -0.30820544838674985 0.10989649986057647 0.19416490432477043 0.46557485745612104 0.14418943652714125 -0.2447738070993757 0.024341323674713467 0.10517376421108754 0.06603215771347239 0.23225962767471425 0.19824365113483575 0.0719562910179165 0.019438396704602318 -0.19815798836893633 -0.0313691095386132 0.1851019146002533 -0.08379513911991007 0.38569364615402546 0.2318671821553086 0.14812113111868377 -0.1829566622846126 -0.3033655591266551 0.12078175029998832 -0.1432392665958326 -0.1616132128476553 0.05784505557610217 -0.027519757877793188 0.15313726726279175 0.31598394437956956 0.1520508996250393 0.0007419274385414693 0.15765914044085916 0.2512156157623487 0.12437363462209718 -0.02415423549870706 0.22420397083534352 0.28897151283630423 -0.23478635576698373 -0.1213183113771434 -0.31419044755913766 -0.2455678710044444 -0.42404100989819826 0.13546115139541243 0.30193227396923206 0.26021552176955476 -0.1276892198554178 -0.17565459049419468 -0.0463388371445212 -0.21185256557595628 -0.231412175583448 -0.08852429924224302 0.2664708231830747 -0.2184791211567647 0.20314399853699705 -0.11591662323628343 0.4427458430367523 0.4111898172053522 0.02731609015498802 -0.05983959652060587 -0.20158292854000262 -0.09102256245888571 0.22665976645719627 0.00016298722357130474 0.19699513831933899 0.16959442745770262 -0.13033514007891242 0.19576132020304493 0.4100531846101222 0.056338557740083686 -0.2447596686044926 0.2141903441727056 -0.04869085042554828 0.2092195375978436 0.04748657704002316 0.16759001175023616 -0.05485634949673079 0.11215986938307655 -0.03049426072856144 0.3466240148459927 0.12305224854789294 0.0689913385569552 -0.0484021566755645 0.10946057957648592 -0.10360578568592266 -0.18303055376093405 0.04987834107304043 0.13615222700402876 0.07512703197338425 -0.04720677579523483 0.008340420099720832 -0.34312611013344074 0.2706842430496033 -0.21261637674694125 0.004177393701122082 -0.06997218089149936 -0.3976809298183329 -0.09850887794736926 0.056590432834555005 -0.16430243901819155 -0.07671027477509959 -0.46854105968087145 -0.44288240502880594 -0.02790548148378775 -0.05941188124508751 -0.14547215530345375 0.1280167231757142 -0.11144820556278892 0.08183403550630375 -0.3234234144285018 0.00818909158017895 0.05294328643922524 -0.19489725113739242 -0.4061712651579021 0.34621415373746983 0.07274499563590958 -0.040116588448954216 -0.08770625572408375 -0.1043442136807728 0.07528878691446701 0.32394682176790013 0.07466526954640836 0.03095348345417169 -0.1824418580249774 0.047763682850265575 -0.1514347748543615 -0.04418647195580882 -0.16714218134320713 -0.11431151192418809 0.12671399276018352 -0.0948274033282437 0.08746724500175157 -0.04075951501844924 -0.08661051528528352 0.10107696274659003 0.11129117489550079 0.13029403746416865 -0.16298649008592805 0.09134675750571605 0.2504242955599753 -0.007051214622149247 -0.2325958702154227 -0.11902512126797211 -0.05847791214200154 -0.13509154085520822 0.0945913157163926 0.060537908789615805 0.013027811763789232 -0.08456713328238498 -0.029059626714722453 0.14665052051186495 -0.1324077104651266 0.032636546409319615 0.1650346012103141 -0.036910788830376184 0.1856581551174525 0.056853477212628144 0.010536559643670755 0.30633959986062137 0.15960954318641413 0.17739416624142026 0.11479277623347162 -0.13412144905360188 -0.1094930885534858 0.0014824752308246435 0.2234654452473787 0.045676255783773295 -0.2964517901439407 -0.18134787749328846 0.10425703531933476 -0.01946259197254703 -0.027700804106208458 -0.09524018538450325 -0.0022498740544753923 0.21430898470645576 0.17065004371313972 -0.28744466999654156 -0.005499671493344654 -0.4967966721084416 -0.09080884570391679 0.13733624291666954 -0.0989121859898917 -0.10991324366033665 0.1013538908554795 -0.22198858172533828 0.20705450238134157 -0.008119475625937535 -0.10994346033643523 0.14252463980600732 -0.1342088562760478 -0.26885763755739245 -0.14399946601753413 -0.15632419237994202 -0.31472629796018115 0.3749210370960872 -0.021335670521603504 -0.3179372575272415 -0.3518806456812423 -0.39751533758849944 0.220151038023931 -0.17025581813395504 0.19883452672873697 -0.12745444068900696 -0.12240231234407462 0.4649744630357655 -0.20676700306001722 0.08912050367655876 -0.4287688796443739 -0.04626023455753911 0.034062551276641054 -0.12854349233336548 0.1652337782822975 0.3144330190353288 0.1512703605850036 -0.03043150549926735 -0.1394480972681752 -0.25993156562002856 -0.0844184255870759 -0.03550667930735967 0.16107213477631155 0.11473278418105319 -0.005144535219810686 0.09077239317136904 0.030526392618035726 -0.16307700249592486 -0.11591568089408998 -0.0640578449225134 -0.09912713770007077 -0.16552610982983293 -0.18167472014973723 -0.1850015276411105 -0.050507927195029195 0.26285688258420176 -0.14872875210054584 -0.22593593458751302 -0.11033191480454992 0.12972579524849956 0.19077874451343615 0.19779065376579646 0.17730523696326533 -0.1607110820174486 -0.1821997497632092 0.06787126173936939 -0.2342234068064017 -0.055622993102840454 -0.17270185586937462 0.009373893097824439 -0.032457872208037586 0.0726497566253568 0.03909982040884228 0.14530353183740133 -0.2015678302101344 -0.09766701161826505 0.021615859084140102 -0.05670679763758034 -0.4572806286890609 -0.06449081919204397 -0.0013358054267800538 0.22425641672807245 0.015596815416253346 -0.5228622051572501 0.024244020735078205 -0.19301933011693115 -0.3203411798947173 0.26168340214883545 -0.07409143752140625 0.21802280594952153 0.21337743126672679 0.4924553521284951 -0.4235680083349357 0.12391989154879793 -0.07643132735654834 -0.1817768651932225 0.008958847696393057 0.4656596928285381 -0.11744934865133073 -0.0820204682471218 0.2921072542898047 0.2182430979199622 0.07987053936550022 0.18961750318178575 0.6143748499054 0.69610156447448 0.07373609151546243 -0.2702013603305943 -0.20169898818949872 -0.1241166349832797 -0.08192342230090822 -0.15910931980087736 -0.24227069526972 -0.19568209094459257 -0.11380466957602291 0.08441296993418876 -0.2543098130027563 0.245248336895699 -0.10950682847221027 -0.237511933683842 0.12836728389356628 -0.15411506089254126 0.3093291269352587 -0.0004151481815505634 -0.1200982233812008 0.1854008768016349 -0.026286167935762137 -0.14156555860931092 -0.2348833326900531 0.026710549056326343 0.04973783379442872 0.19305277989781786 0.45019536459647946 -0.03706400359397674 -0.11765191218928096 -0.20388477396074273 -0.5194643473842634 -0.2586505407680162 -0.1664542511620843 -0.44170276836928146 -0.5392759996456643 -0.6076872815356805 -0.17126654049618564 -0.11935848094765926 -0.3080581552684736 0.14346332631581876 0.3718033397539659 0.1174075014568038 0.23936441010416076 -0.21496626900497204 0.17490415658901143 0.2095758050504209 0.17733659085236878 -0.2137117481407471 -0.35964366431680483 -0.04804974581533428 0.04119153888442374 0.34628338864871083 0.16803236049112713 -0.07023018999227079 -0.3413557572119829 -0.16200910900327503 -0.28405397121817455 -0.2153711241846303 0.09260296712991459 0.09743221332393179 -0.22260670560354726 -0.11241175816849544 -0.22316813296346982 -0.010775270624399839 -0.19678923227052825 -0.05633303521908774 0.04114632533287356 0.01693379754962256 0.22608550715140227 -0.15453838274732848 0.055476567604160636 -0.0471770140557528 -0.10167195742424155 0.008030998493918026 0.1262434956108711 -0.03884371570273858 0.09309525323456112 0.14584455588703502 -0.13848097922843583 0.010031836244339832 -0.08718679973298002 0.17591299575299094 0.4396069439952604 -0.06127038725161887 -0.10551320565438074 -0.30136670183710895 -0.14024598194021498 -0.03479459783736871 -0.10155573002504406 0.7612133753173204 0.05937478671401108 0.12800028712338085 0.18686751319880474 0.08325644190033771 -0.22042677652426743 -0.155783736655062 0.17022567605840372 -0.1792440427174024 0.026765082474573675 0.22178047467275214 -0.5193534057144834 -0.03067941695178404 -0.08491087001604719 0.04182900562254633 0.13915828617102846 0.244084089747599 -0.032192667433728624 0.13710818150303752 0.24348272636585594 -0.18095761963556384 -0.038092395185189074 -0.5869681063721743 0.2666849689267979 0.23436724875949944 0.3378088759902118 0.8215867270470468 0.5036485122036581 0.8925996488857957 0.49494014252366714 -0.35866460191124416 -0.13697936596793175 0.009985109168504072 -0.2147538375484732 -0.03190860276644006 0.05605114822190506 0.41317816661681583 0.044660820744758765 0.21221023231126426 0.22716167856786917 -0.2076454860722151 -0.08115135009140695 0.050114202363732645 -0.16739838403514762 0.18127618981830765 0.10904861945795634 0.055202669417789944 0.19047967532821458 0.32613843233435535 -0.3067788717313782 -0.10402112262871158 0.26723868360766934 1.1003514181021705 1.2823804868872555 0.9347285140882405 0.5086876133221232 0.9256932294442998 0.23944688271994033 0.048645325495618674 -0.25282960962876516 0.026316086975766616 0.1051577920866647 0.25127804298540807 0.332098275911287 0.18356133218980242 -0.11295013591657004 -0.21755814947589888 -0.18285393498889807 -0.042505831534018275 -0.17033444144556095 0.07631548006584599 -0.18985698932113645 0.06497082592842698 0.250141130043858 0.35312671645818894 0.4884923911427696 0.12275767741944255 0.26630725052252124 0.803618710713846 1.0295988210654192 0.6525812873864582 0.8354977378715901 0.6189491907863992 0.01226947911264941 0.7541888683182297 0.368573860963845 -0.11351133403090233 -0.4932014706881178 -0.23671110479786386 -0.002280891047171003 0.4375246399372142 0.045879739273288 0.19714819078438617 -0.2149130050241739 -0.15629552464345967 0.40395122014029966 -0.09196149688065598 0.017929632512064246 0.2409948355467269 0.09127028928879029 -0.17328932101532452 0.014164542433910646 -0.2850623697557325 0.22664644248419757 0.23680531529864288 0.4263153964029488 0.7158253699647835 1.0075784129354803 1.0869476798462354 0.7398815665185331 0.5306279958208868 0.5294485872723814 0.2234136696633261 0.6679829123849992 -0.4261700051976504 -0.2799064437663863 0.16917433604710694 0.3726582563994189 0.5058537565312361 0.5284999890358845 0.14263453943972212 0.19083126547656248 0.29846987057104635 -0.010841232630608287 -0.023654284609487094 -0.10023602706382335 -0.034317268931424845 0.3519079375418369 0.13498615070799994 -0.054642491365333105 0.13692998400343842 0.6194492841908706 0.9571288785849024 0.5516279611015675 0.9874939886243655 1.263433819848282 1.0053204888515712 0.7813796062683958 0.7850182096159598 0.6253452799965279 0.5904872951915627 -0.26017830772415684 -0.1704399969066644 0.4648663892882622 0.337101680333119 0.5982380236591921 0.5648842874075007 0.8339686989334837 0.4457290035534076 0.09341985089081012 0.07727597836562827 0.10572424537495238 -0.14775809274815685 0.0252599472719023 -0.28630643345969947 0.34869708597500737 -0.2911783444303268 0.03748201376668067 0.47635143953929193 0.19699301783418044 0.42006368906262714 0.867832792612701 0.765883107127259 0.4650964469150662 0.599402903801863 0.5253064814685762 0.6780340457855722 0.49234886664627675 0.7338573886297864 0.03737919176349455 -0.025815244874542686 0.4350718598950883 0.3704185164615175 0.5044722017520789 0.5722900893969155 0.8707363461676846 0.8949582578883742 -0.12258447267708664 0.07035597652625383 -0.08768706853768708 -0.008195137518770431 0.15563170117646033 0.12096477832532795 0.24344364782481562 -0.032349929331236045 0.08593250755754737 0.43809962149318726 0.47074837445601597 0.6790878957032008 0.8861580459338301 0.48616993334388753 0.3799520151360802 0.3209234658833637 0.06442562109792112 0.6055998608976132 0.6834635060405743 0.9968790351522101 0.44629333930183024 0.2283243356430423 1.1893928818560533 1.3148507549460886 1.0083462095309155 1.0817395716719291 0.7057334432961426 0.8116633884115108 0.4343362896984385 -0.02499561040059416 -0.034353632137642705 -0.15757656850607102 0.24169715229236058 -0.30121756330287935 -0.11412868263690543 0.037968812667046416 0.010358660775602357 0.473893627407612 0.7697201567963117 0.546298311539279 0.9456398239071633 0.5100026536931798 0.09557894555249054 0.004227044949670983 0.14290787906816016 0.2707351559792131 0.3435265272418881 0.543780165767137 0.07173939522433503 0.46922706118602453 0.7410455068956119 0.8921027235953797 0.7778187351593703 0.967420316014429 0.8871959796001374 0.7456210561960811 0.6639047007021925 0.15531708851051895 -0.148803096924821 0.32158653165776735 0.05588057986780136 -0.32451534885290145 0.3156836812138589 -0.03353225162754162 0.10270491202725437 0.21267577179115468 0.696070294129315 0.45032916726344424 0.5024100779011839 0.12709425685698303 0.15611514936064572 -0.01827244751771048 -0.2579512400473907 0.36290627117140645 0.22663185698799757 1.6455116693533727 0.8828559372280037 1.5686955673595575 1.0413245118819043 0.868345422177898 0.9669969088306978 1.1453728306495323 1.0578416344801094 0.8500080752279725 0.45775894270006673 0.05185605890389698 0.03967900794792145 -0.40889852443784275 -0.02086495634436571 -0.15624021637066926 -0.4222663529022516 -0.2469554645400551 -0.07604825132767278 0.2048288603339996 0.37495799333310537 0.6775149916456504 -0.2537238415281968 -0.4469688859658402 -0.5812274527321883 -0.0847202865562092 -0.5181495583171192 -0.07059373654047128 0.413246914786433 1.787221035016665 0.7345579876833279 0.7411458187639259 0.9859337177261115 0.8184009499561083 1.2907799017512516 1.248796625101132 0.4147655221172228 0.4100612603530288 -0.06432648688825894 -0.21084578648843638 -0.2996350576456339 0.1169176426919845 0.14990369270101217 -0.06807863261826841 0.022952127256704154 0.020115869700656937 0.02813754156588065 0.3273008492110185 0.23952725432388736 0.3289460452371673 0.05292920417521623 -0.5738045723378693 -0.1654277757907109 -0.5474809921343062 -1.146130421215432 -0.2849985832567328 -0.26783140863041094 1.0388369317600716 0.5750325578349568 0.9868953049814445 0.3792828090081922 0.27591460973605636 0.1774170599810042 -0.08394075330842424 0.00906688905615886 0.4033542007164896 -0.13465176166592333 0.024261535607358477 0.10824281265760718 0.19866120987826205 -0.16458622574434567 0.550342997981135 -0.4446256093182409 0.010774008993260387 0.16033036639145987 0.11237262575149341 0.19803635812075127 -0.06739630266517818 -0.2826226033050369 -0.033745374293832224 -0.135106234377213 -0.38702729248763634 -0.6896836178512323 0.1585941779916263 0.007649083897196794 -0.7217478560526273 -0.6889428324638983 -0.8066618249546783 -0.7691988045366961 -0.676449416488208 -0.4159587549435219 -0.3513400632198637 -0.33727930920348625 -0.16729462002951648 0.032612133700675484 -0.1133551718997841 -0.011320484574931247 0.07616248815928048 -0.00577943145226105 -0.2876881395730943 -0.05148153203487265 0.2653505268195303 0.13213693611502705 -0.1300190606589554 -0.3389329876097996 -0.21969359694299426 -0.5193180919719371 -0.40475901971634454 0.028364238045133692 -0.16600846512970488 -0.31528033278885287 0.38098569238209473 0.08594183990295394 -0.20159254843678678 -0.3307399215698154 -0.46146452435833557 -0.9253366171754498 -1.2198807577439084 -0.8401700815706439 -0.6883425575387124 -0.20687710358240036 -0.6383673490032278 -0.3234527597206499 -0.2635909870105209 0.1285753279019361 -0.2409095556677007 -0.02984068130784519 0.26244938168594556 0.028468781341685796 0.054414045619205424 0.3571209916919426 -0.13342080476776214 0.15788891478359438 0.031778328754528025 0.07062718861119471 0.3981232019753277 -0.4537900923167129 -0.13365901987612536 -0.40580990535615724 0.322475408995545 0.06359688935829143 0.15468875154752537 -0.34327039753310284 -0.28491932295435163 -0.48300244947788357 -0.6061653993240889 -0.8324475369113213 -0.7286816397063233 -0.650516943567038 -0.3396231715544718 -0.24682659755423297 -0.039977285771537606 0.4402657603665033 -0.18329374418877165 -0.07456413828240496 -0.06583917248371308 0.1910655534023486 0.2713546026145128 0.13725926616871856 -0.015791279134823942 0.25495543767323503 0.1986772109776299 0.5584717063491512 -0.13760520022510658 0.029322954501003713 -0.2359706185487472 -0.10511359467769821 -0.11583564674130391 -0.35580966833860544 -0.17592165326981807 -0.1351726311199469 0.08674319485013905 -0.7051378138988675 -0.5351489160217174 -0.7286921017283213 -0.8298560045608087 -0.45677145356526694 -0.8183849054792399 -0.026227361417430248 -0.21525028913864652 -0.13453062100338317 -0.1924413347283727 -0.29852861009402876 -0.020906311528556216 0.16545575158482878 -0.325152301337625 -0.34247477399911525 -0.10034768489357039 0.3370681381811884 0.1597488814538937 0.32424309696912385 0.2893408823471703 0.12200168703520996 0.09264542454079432 -0.6863088526462973 -0.36290163617550125 0.007783352891238293 0.31901404798109484 0.40653801247973564 -0.24453320736878403 0.044562450547023263 -0.46902717137564637 -0.5675673661740803 -0.3089135781070905 -0.1370397230230868 0.023754646535925718 0.014764136649532876 0.282998698600045 -0.20489699097858868 0.1027541775408201 0.09073831228031602 -0.017366870176471535 -0.03560145090790983 -0.13289770256403144 -0.07520397038008252 -0.01794502099703978 0.3379897983934259 0.049274420669685876 0.5073493584926236 0.28040539402265713 0.11169398861767292 0.2800274532086879 0.1625504649537944 0.11358008897880582 0.3106701333502796 -0.07592215453442785 0.007429739679980051 0.2565561019803545 -0.24656578959869593 0.10699020108020342 0.11011932623575944 -0.07206948274200198 0.1603232767444252 -0.07654423563323773 0.016095010953357435 0.0328993616659406 0.06083474290791194 -0.3112591603626111 -0.1373838106736466 0.17076752442655402 0.07551000786213828 -0.034779521178909104 0.3049429730533677 -0.029469079921872404 -0.21558435189592223 -0.0021070442516854856 0.1419096882622078 0.2817981814904903 -0.1139470615972102 0.1761788466999148 0.288712484706784 -0.01748799441044582 0.2107510121042546 -0.16078625944930003 -0.02266674771447457 0.17755157858739223 0.14833877089031064 0.2986971923363716 0.2639080583628455 0.14797889996494132 -0.0957938302269323 -0.22412284627575801 0.24567168861230793 0.16506294553995246 -0.055559252537522454 0.18265524383371745 -0.14558902255746797 -0.012613118071568228 0.04867942605430078 -0.1992673233081214 -0.2090011146565202 -0.19456970020381117 -0.16991930310811146 -0.15242076461171405 0.2534601625756087 0.06099001990022343 0.201582005735522 0.05970794989261877 -0.15903734426979058 0.09924887336870518 -0.01037187668631075 0.10486386815495663 -0.06995015073366714 -0.34394596421529694 -0.20205742115335878 0.2666435443447351 0.06105454891850604 0.14711751866349093 -0.04126951115997775 -0.13502933475432677 0.00926586243361151 -0.1635741337599963 0.23828853564017857 0.17203843051305362 -0.24313991930143866 -0.02353284551268618 -0.27153756226664877 0.011576576095428675 0.13585784953665225 -0.13751845524509224 -0.3149661055038158 0.15027151088216578 -0.27782228340356424 -0.18371244206445367 -0.20342681334963256 -0.08807111642953187 0.34752806002246933 0.1321056474267448 -0.09435757338609467 0.03072120347479603 -0.17703929437966937 0.11378254139338996 0.04605674830473075 -0.30760387555182334 -0.033995355312369475 0.01959899697665075 -0.03139304835720478 -0.023222447577581545 -0.11293912803206742 -0.2191281575056502 0.26755001598262024 0.028464934333172792 0.07206947787543296 -0.1685490999939206 -0.43205026505446165 0.20073715994276464 0.0056956894482115454 0.008177717655544677 -0.019719119780802468 0.1709327135624593 -0.2602145439057624 0.15674171147205965 0.15621655525043335 0.39938918774374654 -0.2501246227436299 -0.27212009382125646 -0.2665923759097395 0.00271770614848374 0.018304498980151667 -0.22169762823787958 -0.1306215785962641 -0.10410149187851814 -0.1962811203109874 0.2855782689192665 -0.15689133272543432 0.4087672453082209 -0.43508499047065 0.13596377248518635 -0.23892493291927244 0.1692816596123966 -0.00013925727748335888 -0.07791478631184619 -0.049557273417965786 -0.08873445813518752 0.1222359116382994 -0.6125218704157189 -0.17084647233409517 0.033557607579746886 0.01826941298137852 -0.310117945337018 -0.10307081084341228 -0.17918215729331752 -0.0549021885260108 0.23273478098524603 0.0982555476777335 -0.2799125590341997 -0.08994792484944494 -0.19861137520746888 -0.19765765412336453 -0.03999993476907603 0.06482217000416994 0.15815527837541296 0.0689660401919299 0.06075958941138798 -0.0792581667219395 -0.06642733643210946 -0.1122295003944679 0.09626041526707402 -0.05798062364258562 -0.22372085901769803 0.028416845023038807 0.06729365958895157 0.08698986723075906 -0.2979725521845435 0.20451619129684703 -0.060915422611529865 0.12453852907193569 -0.30136185910704144 -0.595211300410991 -0.14944707725118758 -0.19915082404672324 -0.062144495778195745 -0.3797281090184429 -0.708743375983797 -0.5057400811675692 -0.18424560666106957 -0.29251366526816835 -0.12412357076825326 -0.08966186801096061 -0.10263146490303003 -0.5004158040160563 0.07554888040812731 0.06545271624941242 0.20944673217190574 -0.02121259252014429 -0.03965896443091641 0.06028546619721342 0.042854238465770834 0.33014959759144663 -0.29240233050766606 0.023456034972078165 -0.2798492228130482 -0.08384092288891262 -0.024021461660267987 -0.2772184880692271 -0.32158018315210296 -0.1394252514858853 -0.1656179006001014 -0.10888094189272797 -0.11657137101892624 0.059363500834642875 0.10564752892857791 0.22623227971750567 0.34861062689567274 -0.3394458337201228 -0.3382720817021949 0.4897198629726882 -0.39684047724448057 -0.15186702667010257 -0.080935415974575 -0.26743159199728544 -0.12597451104737278 -0.02502079459424633 0.08007201172045526 -0.3206162238516577 -0.0862180620024743 0.04667437221050066 0.13651173258832972 -0.09580750152053905 -0.012993221688945681 -0.25842156114018333 -0.3343343905655039 0.1069906867660389 -0.3819148088984977 -0.5040672813506316 -0.4540522597425772 -0.7581823144262384 -0.28604595197238186 -0.20164834411611343 0.20750695173615824 0.037888779782896925 0.23302707997740743 0.34689866593822577 -0.05397050980116112 -0.03968507798588824 0.1087958605054666 -0.21902444046866584 -0.19520653007639455 -0.3007432967499484 0.06039871607914541 0.2705333851326114 0.1962019668414135 0.16386146736284612 0.05481321070112349 -0.38219014659630224 0.3573267040358572 -0.4055581472807032 -0.11776134778618756 0.054738290443437525 0.005628066903199901 -0.2500940871898904 -0.5139270909220476 -0.9986053386551886 -1.2193106674942626 -0.005511842135506889 -0.026885968164091743 -0.5158834739558379 -0.2790726488158396 0.13707590923584714 0.6572867196480415 0.5671433430316014 0.7989056953972682 0.7190665076076341 0.6398201865329901 -0.06452279381260206 -1.2270535686017598 -1.0268978231636345 -0.6528116906543284 -0.36160229599273386 -0.17901180211612158 0.19426815212628265 0.034909074609704625 -0.19513004548468926 0.0499004534013386 -0.17040373112477913 -0.10045534024914825 0.0035792980685977194 -0.20444607229493708 -0.7541541496046346 -0.6945398085917447 -1.0080034461124072 -0.10033770884062096 0.15186921624736383 0.2962462460024843 0.014985272910330963 0.3497025616564336 0.49454175267632533 1.3362704321973629 0.8922563462336037 0.38472059744912923 -0.2022733744535309 -0.16138503723200168 -0.7696313755542407 -0.8807971833721661 -1.0073441229296747 -0.36826244315359385 -0.121238056872763 0.04128991777340821 0.08134482250434905 0.12875194330335024 0.11393149356919854 -0.11938705176640313 -0.5258431251480487 -0.31834686594396255 -0.26379976712974584 0.02233407116623563 -0.288945980810839 0.2905974256495043 -0.4088079114826146 0.026064514779623047 0.06024308352827356 -0.39636918916420544 -0.6535215844907597 0.5820819345514634 1.513279509496225 1.5463340984472598 1.2713394082017588 0.1507768541675291 -0.5665021479947846 -0.47966392713742045 0.17691587906240716 -0.04607515538438248 -0.8771002847884614 -0.3270873178462953 -0.3198564667324422 -0.07722512131322615 -0.08401195692863817 -0.0772109253658575 0.4316136095112889 0.09965369970661345 -0.1792334770301803 0.037709257728174815 -0.05967375292369029 0.33092295333955773 0.17371394862190534 0.027741052686000287 0.15223449595264996 0.27177856176349346 -0.25391440772049817 0.13784084873618702 0.12305744735465143 0.8021213053286232 0.8363324319513873 0.027294169890813583 0.8564165954692609 0.4424442553605173 -0.25963079501642544 0.20736357294230806 0.40335594915006934 0.3297336952839109 -0.5727138266928717 -0.21332283978539454 0.17891711058300666 0.10027202267139299 -0.18037749314022938 0.010656130928212442 0.12531412586646967 -0.22607008127752415 -0.1801177420930326 0.42693771833955246 -0.15750303599581564 0.26079333138037764 0.36527161337975994 0.3852366150701718 0.27944329619641994 0.41974048485163545 -0.006576138492278451 -0.41531924360911066 -0.6472917643788595 -0.7691305182476609 -0.7834098609538305 -0.21119198325582325 0.8306743625414865 1.4218862694610173 0.8177054324004679 0.9144449227902166 0.7329360050385237 0.8340574995465039 -0.029522222853138262 -0.3758096240602582 -0.22442332835924997 0.07593808000752023 0.0032846580554144033 -0.38428490187860315 -0.08311372112989553 -0.16306814691812335 -0.1006791679968311 -0.14359803560390227 -0.06776207066257993 -0.13064877444984607 0.5464445020042501 0.2471414997775433 0.1722817858516597 0.11890283043387628 -0.5780404117081881 -0.30539225356255645 -0.5748518378578922 -2.0241143349275346 -2.5379685967402237 -1.4914306823469847 0.02517917243171286 0.20783068620480577 0.3374913088913925 0.9512069172756902 0.9639307672874595 0.7351685285083089 0.03950842264759992 0.1704740331945729 -0.014760932616327356 -0.2663980738434482 0.2770432274020917 0.09377283600642282 0.08025552319213353 -0.10154182373830259 0.014543400781220808 0.45226988205907304 -0.01788423316563794 0.3351087238287289 0.15007968940465077 -0.1392981057425379 0.22598673107481096 -0.06992292145557741 0.052063051717471304 -0.3814239810032835 -1.0042544739606525 -1.738890035582155 -2.0299680061378385 -1.1886952412896477 0.6103861331946296 0.5194766793228391 0.3381252961669942 0.9923979471307357 1.066350941456178 0.6864606017112032 0.3138154807635679 0.4261373424615513 -0.011249441442411672 0.020281178055691115 0.05641126382356158 0.12851091211900242 -0.06485189517933952 0.16970517598130483 0.08398525779876168 0.24979079814020247 0.9695051709228291 0.6473733761976271 0.8626932369936933 -0.2561873568626652 0.4788789612333994 0.26737837894098354 -0.09910859024935652 -0.9980838358775425 -1.7797411206710914 -2.4778163382500553 -2.4745985160662984 -0.333456826191336 -0.03824162308021006 0.769260373498067 0.21659418425436675 0.5607305441314827 0.9583059805664922 0.13143991524335763 0.01081545401598384 0.11081972066205377 0.038257420864540155 -0.05071531163394437 0.06397507611122999 0.16466263664307407 0.2458893898453792 -0.12382768300273628 -0.20344586056272612 0.663430771099585 0.46880574806096226 1.1758798187152217 0.49786385087677415 0.5784739213595429 0.7834624167603856 -0.20173243431004964 -0.6040226489372602 -1.1651109934803088 -2.3792626436880115 -2.389836195753325 -1.6247036155627241 -0.45519380513493374 0.19360862799259698 0.45343286153927675 0.3345123304841924 0.5169537664823111 0.5012690998115329 0.6649794518071215 0.37864634269645586 -0.08456501572521853 0.10126671561607868 -0.1267688708779087 -0.4190134396607882 0.22848182017291882 -0.17768889843853683 0.07239460380756538 -0.3475153065009035 0.4625437543091547 0.19692341775682687 0.9892558658294506 0.8767908644912076 1.1936231495913925 0.6535388130228535 -0.6783445746544084 -1.1537569412733808 -2.3475234387143487 -2.450579223448393 -2.6411065889578973 -0.9018265327297728 -0.26557584288182645 0.47794895670842835 -0.5609834482409003 1.0290166693681577 0.6894286761188937 0.060391243424975406 0.82148843938455 0.5370510979158855 -0.14772810988842752 0.07702949783336015 -0.2687565668839457 0.20913096589113478 -0.09428457997612569 0.061623232438079024 0.08518512407462865 -0.38336170104788236 0.26980626226858884 0.4933495266564295 -0.1575169311147132 0.12907792737170348 0.7057989400723819 0.6254155111072687 -1.1223444898340744 -2.7500172195421606 -2.614099606333854 -2.2787076071923926 -0.9949398663397347 -0.41196837885680376 -0.3741896365870304 -0.052567667335110785 -0.2803227225972128 0.3682826739236959 -0.33466359444299765 0.00010710048005077386 0.5067313666153386 0.2167132443377455 -0.4014738248190225 -0.044032750096536684 -0.030461605717266964 -0.16848467698340056 -0.26927971541084844 -0.23605857293092544 -0.2453512725043281 0.02456787805460809 0.43336423517708017 0.15709124179162837 0.11067379250959605 -0.12945711799493986 0.7773027805231312 0.9136337010213755 -1.835193917374921 -2.554387219908271 -2.0954569982300475 -1.3067608625342808 0.018972725094943476 -0.18317677073469862 0.03237960765823374 -0.46504696367869425 -0.39408438142441043 -0.09152627011556774 -0.14384826180574856 0.44016440480808483 0.04937606454211507 -0.21385304829694915 -0.3458196834418398 -0.15523206798570555 0.13750482882632029 -0.24192494923879831 -0.12015719566262768 0.2775091483770759 -0.28031613877124456 0.4631027842804442 0.07388947966203308 -0.1091144100147049 0.03591956926471969 0.6035091111346584 1.3381016959021235 0.8442491645660392 -0.7207936664933022 -2.416140004108617 -1.4246698908648865 -1.3768333713676821 -0.9925344037552195 -0.8330033775058198 -0.4177957220111776 -0.4307476673451372 0.0720242041576385 0.013863734806281298 -0.32915699282752536 -0.2564608031184113 0.15635979564873156 -0.27950858216329627 0.04399803677218729 0.07222389395231386 0.026631880812240605 -0.041671567356194476 0.18568114825508666 -0.1880303643453762 -0.1684615304283306 0.3210037277135585 0.14981875408360507 -0.4068599871522669 -0.22530196974000527 1.1841011737987508 1.3832637712845521 0.9912983276681742 0.5796965481015164 -0.07286577319123537 -0.6201276048843258 -0.7570567309209415 -1.0970983669982997 -1.160513705844784 -0.20303219782213175 -1.0379652810415194 -1.122620965404324 -0.3691113869046259 -0.20140362075992183 0.13817461743134388 -0.5612679218112582 -0.07504574459717692 -0.08380579925526944 0.13865084299556305 0.24404671605407408 0.21999993768316373 -0.003023424910678182 0.09832696832302174 -0.5272798961793116 -0.45467941411265805 0.004221842187535622 -0.5260546218620826 -0.4169036191495422 -0.06303145361998232 0.2641148155824147 1.3971508540684254 0.54413154229354 0.38675703579928644 -0.20314005858803993 -0.9827439468195139 -0.5502179580186698 -0.10120223537192512 -0.2677283877235099 -0.6281403817574018 -1.1989185372343527 0.2015284728868436 0.02981698310580746 -0.14032853363362077 -0.819260660672415 -0.1068327415409743 -0.225103236518372 0.16509662537559344 0.18548630320666765 -0.13923035124774452 0.019327127826465174 -0.23162243053281234 -0.1262861702833539 -0.42162671600374735 -0.6304797864468621 -0.3779926304225382 -0.33206335596478587 -0.18899754024132548 0.6539440018909133 0.8232871935702546 0.8120732411830393 0.20350816685062248 -0.14747358040925074 0.09995973415164273 0.21450589847412854 0.06803805957862484 -0.26967151323674043 -0.24449559598675671 -0.2322461670255082 -0.13891881964877856 -0.15013923480172398 -0.8060712982284569 -0.30435588902561705 -0.2626001411593503 -0.27786636261732367 0.08976247605217255 0.39685008586108234 0.0912170214272691 -0.27128497039928706 -0.5567463883602612 0.04715553500451463 -0.4614708166624297 -0.006482746908126231 -0.43100552303156736 -0.7024999262255359 -0.9300095443546685 -0.1647875454206442 0.16719615903495189 -0.5328740528244144 0.12149948947793776 -0.4147451270551177 0.11542528969269049 0.15837566456825936 0.1113326690058783 -0.0011334623828311357 -0.15195792953444132 -0.20871245313185538 -1.09672811675071 -0.3651122009500952 0.09707149998416377 0.22749635245686134 -0.4210854368819411 -0.07646536028765129 -0.12021790862281721 0.03237490391796822 0.017667235667954972 -0.41699716748716614 0.10373308834406196 -0.12595053274235446 -0.040557178799887586 -0.29184929356704764 -0.3604388639135742 -0.051429234479273674 0.07151907746410353 0.4259766726057254 0.13758684537888374 -0.33059336241746856 0.1671830745830329 0.35973598245889815 -0.11638534776005266 -0.2790933966426404 0.004274850258022166 -0.3103719523305204 -0.9581864747992737 -0.7865883169048004 -1.0279580364192231 -0.8432669335229453 -0.0583355581288529 -0.11779959258443559 -0.47791011400489086 -0.006308426126348316 0.14046909265950078 -0.05291660231398327 0.04126673761314598 -0.01124240319026302 0.08029337484828207 0.043420404579221056 -0.09195665245887792 -0.03587487142274424 0.03471337030587803 -0.19500381454191726 -0.2302724693786153 -0.06614964756857704 -0.16824394907561913 -0.30685827871981464 -0.5010385511017796 -0.6155496425028252 -0.5291264200638925 -0.5965435230426038 0.16417518851508925 -0.19463572535104764 -0.5829739737038525 -0.42267977848370225 -0.5663335181010947 -0.3040737707535716 0.17045317590354883 -0.37696376566944795 0.12374456413628826 -0.1564984514973908 0.04751785094242803 -0.26152860656886784 -0.17361620825902918 0.2813288523631479 -0.39370114070081763 -0.08798138456996832 0.2704627179797307 0.12931593892188809 -0.020042010933755853 -0.07654431692148264 0.1725925290070075 0.11656598175932514 -0.5383030449338181 -0.3874974271196069 -0.9077988616692727 -0.6902931804684556 -0.4257873441024951 -0.33978512606931827 -0.5081487634800298 0.07277686842473927 0.17837056258618025 -0.012257774626565337 -0.2558530477593367 0.10859225495282576 -0.1288953810580938 -0.028690060417869725 0.020617364118742702 -0.11148412943956042 0.11824635547722341 -0.027390663804701443 0.09427618570539212 -0.06315019653016217 -0.07041986561681597 -0.11754440467829662 -0.14264562427626867 -0.12605436225236064 0.0993771691366321 0.19743724307494362 0.09806403177929926 -0.05870703624251417 -0.4303260711542426 -0.39245474070197206 0.061618896923353164 0.025229307910379105 0.07199071106163285 -0.41230572213007194 0.02358388119513484 0.03436045114787613 -0.034834972126336426 0.1917838792710314 -0.24603606908568185 -0.009808826937773737 -0.20355175174940246 0.006106991071156587 0.17228848184018744 -0.08813655432703463 -0.075029030231243 -0.07761498242314989 -0.07591578048411486 0.20828835348534194 0.12848222841635906 0.06961696310064838 0.009661063575632947 0.4417114884657049 0.19211371946287384 -0.1757511909436927 0.04079999492673913 -0.2840688896889237 0.1450189788935887 0.1703393575551677 0.1693747815529062 -0.13121771699967497 -0.07116995839753193 0.2940667209168946 -0.12965473956347298 -0.2618469197619217 0.015693462877515597 0.15986715247131042 -0.12202115260821159 -0.17083208582938536 -0.08933111487510148 -0.25442492776966763 0.07762581824079096 0.13737802080331343 -0.1549810218623771 0.13010360807729837 0.1217088481379165 -0.005981863536502407 -0.016820595675897342 -0.13341237055417177 -0.178676233481876 -0.021076311117502328 0.019297691081090838 -0.0359372169055454 -0.3830075956264038 0.08731686747365738 -0.10200487794992594 -0.07450144436419408 -0.05235900229724398 -0.3439996133502312 -0.04902274305242417 -0.13506653125981902 0.17633797923425196 -0.11708561334725491 -0.05985448249776003 -0.0007527879272671177 0.3992099009406984 -0.31080368460273344 0.17810144165985076 -0.01163462209209518 0.022253688815952178 -0.08726739746414855 0.011695163793065684 -0.1858566857163534 -0.2551144870193632 0.02820955621629216 -0.19249678570595985 0.02120584164976875 -0.2172460063053328 -0.10589825636218746 -0.11443551113684623 0.07848682797369978 0.37688557411782836 -0.2885749721762866 0.2638196583775358 0.1036625723813718 0.08823606328118465 0.15209566647878078 -0.2541997317511571 0.11229706618321426 -0.1516726177134445 0.14665971277118356 -0.04088856971345041 -0.04159598844626632 0.052865092484772266 0.09751459186286345 0.20321485286583948 0.1262081980473319 -0.17203511821017767 -0.27157115644406815 -0.07080545853888921 -0.1270126380526972 -0.05228133186941053 0.1808752859812515 -0.3363079447322841 0.0075704032764758 0.4792056824506297 0.06646723945677284 0.29917599713195886 0.0641296380041524 0.5684351857975901 0.07821391750800318 0.25498555922624183 0.29841841074770087 0.27113215070822977 0.31500548227277475 0.48444170411153564 0.3263552235804354 0.4655164133566924 0.3738442456046313 0.7530823769809851 0.5026191338713638 0.4482764396240766 0.30395955869980895 0.36477442274415084 0.03287534295184855 -0.1417375122019302 -0.019330956660288643 0.1742802130118724 -0.16722154341807727 0.24412833994960442 0.07427441694928481 0.0970565516654385 -0.13306605119218615 -0.10886189725438561 0.3513331673779389 0.14315595867019512 -0.04046057182810285 -0.06464566900795185 0.5148950565597312 0.8886401693781963 0.2911106856149796 0.826482316175348 0.5062057016430062 0.7329306665112874 1.467142806459354 1.2783124401047612 1.265901939562136 1.3763514311240566 1.2239910505114395 0.8492883750711964 0.565552133804599 0.2796367299798031 0.19870155436807016 0.3838607543616235 0.12493326132354034 -0.04351211365127593 -0.26051278059192373 -0.0916435621437033 -0.09846579844395065 -0.5800791784652846 0.2135212610840385 0.17547461445269194 -0.05805561353587672 -0.06703209594119762 0.04304766485080911 0.3042379625982488 0.42913232079747027 0.9161413387091857 0.7878284617991967 1.1284756083221175 0.8289858387594459 0.47835412120315585 0.6152825305741977 0.3618644984782476 0.4849462120476121 1.1332945444335798 0.8348622156518921 1.2583660995723127 0.786077610413845 0.6562426972185588 -0.16755792927894342 -0.07708162880062484 -0.053869168586547056 0.07663818428727628 0.41727023264781415 -0.25247208135724547 -0.16110331398022545 0.07678482154124934 0.41625332916630003 0.03525807170128319 0.18542859091115885 0.39507120317381766 0.20021858804117373 -0.06543325378609897 0.08701071684974743 0.44247249972421265 0.0412933126248385 0.36859652096741463 0.47411516037352175 0.30672549089375734 0.24726103635054014 0.27287406311004997 -0.686472460403857 -0.4811276266581765 -0.19587122946562102 0.2455175254401358 -0.20272208108296164 -0.5783302410519191 -0.3324440537869235 -0.1410368892308793 0.056287462805783915 0.1333779768953454 0.06325973653952387 -0.3096989576030279 0.07330707255802582 0.15296940876675894 0.2975604769144393 -0.1284404822787323 -0.0984697647460307 0.5484179892548757 0.1870735832210434 0.10761345264648771 0.7563635855153394 0.9237968338834579 0.5625200506922445 0.21694945550807448 0.07065888139027117 -0.7136044970388219 -0.8847141344190156 -0.3867042959451901 -0.5955215190041662 -0.44035883736120807 -0.8483876741590152 -0.5893350237105766 -0.7148655278583546 -0.5996437845536439 -1.349274749070941 -0.9240044304797763 -0.5089906560349436 -0.4175196053541107 0.17785728091176897 0.33122078133840965 0.22041417202343885 0.0021295703727857627 0.4793096929776238 0.32932761696741786 0.27271082347398456 0.7213291790875107 1.1647447555814558 0.6859281504832025 0.18723094964218198 0.4300168337892001 -0.030579959346499305 0.4964445575350461 0.5727898157179001 -0.5677256122339728 -0.5616691123577748 0.5586748024510523 0.01432253855202449 -0.39396351560765575 -0.46366600981485 -0.4568342798702508 -0.7530173812952431 -0.8515982412285398 -1.608927019121561 -1.3823374747479507 -0.9279238972044331 -0.0683798319160784 -0.032254294579907465 -0.1878763919228905 0.02620534238548245 0.0395145534638724 0.011506079760024128 0.858177805961728 1.2763094562304749 0.47350815699282095 0.6153879895083884 0.2752925591926505 -0.20494978886334841 0.5369762007889737 0.25280094470924913 0.6897505680480635 0.8834612369750308 0.7376100501700921 0.15697381092827 0.48268779036044973 0.6175219997739995 -0.008594945076120174 0.028449671375146066 -0.6320118520786492 -0.5777196211265268 -0.37286006955510315 -1.1007760724737652 -1.3729213096220276 -0.8186321508718057 -0.1063014021810731 -0.10146402499758989 -0.06105271593686572 -0.13172521579972746 0.1853487403866088 0.5338742827150236 0.3723382935924475 1.251882962678075 0.19458791522332697 -0.13852247932054707 0.10575983078771395 0.051396174992461574 -0.0601689175237006 -0.4266396491225557 -0.1677848228946096 0.4463904811492478 1.3121197588228348 0.8397096163327243 0.8598085340411699 0.5832828762701284 